tree
version=v4
num_class=1
num_tree_per_iteration=1
label_index=0
max_feature_idx=6
objective=regression
feature_names=Rainfall_mm Fertilizer_Used Irrigation_Used Temperature_Celsius Days_to_Harvest Crop Soil_Type
feature_infos=[100.0063873:999.99611560000005] [0:1] [0:1] [15.00012581:39.999699540000002] [60:149] [0:5] [0:5]
tree_sizes=848 891 882 880 891 890 892 899 887 895 895 886 885 896 895 890 904 889 901 889 886 882 901 885 888 903 898 897 904 885 901 896 902 901 888 901 878 899 890 899 896 896 889 886 902 897 898 887 891 903 889 886 902 894 901 888 891 896 890 902 887 885 897 902 885 898 899 907 881 885 910 890 883 891 905 908 887 910 885 889 907 891 875 891 899 889 890 891 890 898 894 897 901 893 912 896 890 912 895 887 894 908 910 886 889 902 889 890 890 891 897 895 895 905 896 893 895 892 898 885 887 891 903 892 893 897 898 893 874 887 896 876 894 895 896 903 877 900 880 891 916 906 886 880 894 885 898 884 889 892 909 888 892 901 895 905 887 884 887 877 891 893 888 891 895 884 893 885 908 882 876 898 893 873 896 887 901 884 905 875 889 878 893 878 897 903 898 883 899 885 890 899 882 896 904 873 901 890 903 893 877 890 902 878 888 887 891 889 890 890 901 888 890 893 880 906 883 886 884 892 902 889 882 883 884 898 889 904 887 882 907 881 880 894 879 886 883 911 903 886 891 908 899 904 883 889 903 894 884 910 879 898 904 898 904 894 883 902 888 893 887 898 902 881 892 902 879 900 878 906 880 903 906 871 886 889 905 907 893 890 877 874 902 909 893 877 894 901 918 888 881 906 892 904 905 878 876 892 890 897

Tree=0
num_leaves=8
num_cat=0
split_feature=1 2 2 3 3 3 3
split_gain=77926.9 24319.9 23864.8 653.451 618.724 514.791 490.498
threshold=1.0000000180025095e-35 1.0000000180025095e-35 1.0000000180025095e-35 25.79558287 28.934581970000004 28.543447520000004 25.893513260000002
decision_type=2 2 2 2 2 2 2
left_child=1 4 5 -3 -1 -2 -4
right_child=2 3 6 -5 -6 -7 -8
leaf_value=4.575006450094266 4.650831673483304 4.6327962083501735 4.7087591048657567 4.6467638765768111 4.5885400918923329 4.6631803933802338 4.720843639182406
leaf_weight=19056 18230 14841 14724 19214 15206 15715 19623
leaf_count=19056 18230 14841 14724 19214 15206 15715 19623
internal_value=4.64851 4.61075 4.68628 4.64068 4.58101 4.65655 4.71566
internal_weight=0 68317 68292 34055 34262 33945 34347
internal_count=136609 68317 68292 34055 34262 33945 34347
is_linear=0
shrinkage=1


Tree=1
num_leaves=8
num_cat=0
split_feature=0 1 1 0 0 2 2
split_gain=170822 36323.2 33802.2 11869.7 11679.4 10658.6 10630.6
threshold=563.55166780000013 1.0000000180025095e-35 1.0000000180025095e-35 327.37011825000008 337.79514890000002 1.0000000180025095e-35 1.0000000180025095e-35
decision_type=2 2 2 2 2 2 2
left_child=1 4 6 -3 -1 -4 -2
right_child=2 3 5 -5 -6 -7 -8
leaf_value=-0.11809194202113067 -0.006257489132952764 -0.047924209889336232 0.065037344912205003 0.010158647554735917 -0.060532445190802545 0.12179485075166763 0.050465644650203006
leaf_weight=18069 16613 17202 16533 17999 17208 16558 16427
leaf_count=18069 16613 17202 16533 17999 17208 16558 16427
internal_value=0 -0.0541598 0.0577199 -0.0182255 -0.0900159 0.0934389 0.0219448
internal_weight=0 70478 66131 35201 35277 33091 33040
internal_count=136609 70478 66131 35201 35277 33091 33040
is_linear=0
shrinkage=0.05


Tree=2
num_leaves=8
num_cat=0
split_feature=0 1 1 0 0 0 0
split_gain=154380 32028.7 31327.4 11186.7 11139.8 9318.37 9260.34
threshold=542.7727331000001 1.0000000180025095e-35 1.0000000180025095e-35 777.74056350000012 770.57848300000012 320.44350280000003 313.25886925000003
decision_type=2 2 2 2 2 2 2
left_child=2 3 6 -2 -3 -4 -1
right_child=1 4 5 -5 -6 -7 -8
leaf_value=-0.11531880327749558 -0.0087378422061133911 0.057987018916893202 -0.046404158462348362 0.048132369220886144 0.11465528051256146 0.0062606985881842325 -0.062819402733949217
leaf_weight=16190 18156 17359 16643 16510 17334 16956 17461
leaf_count=16190 18156 17359 16643 16510 17334 16956 17461
internal_value=0 0.0523383 -0.0539796 0.0183474 0.086302 -0.0198267 -0.088079
internal_weight=0 69359 67250 34666 34693 33599 33651
internal_count=136609 69359 67250 34666 34693 33599 33651
is_linear=0
shrinkage=0.05


Tree=3
num_leaves=8
num_cat=0
split_feature=0 2 2 0 0 0 0
split_gain=139715 23831.5 18662.6 10644.7 10611.5 8340.8 8261.42
threshold=577.25383800000009 1.0000000180025095e-35 1.0000000180025095e-35 359.64813455000007 363.21366205000004 799.6865727500001 796.33893510000019
decision_type=2 2 2 2 2 2 2
left_child=1 4 6 -3 -1 -4 -2
right_child=2 3 5 -5 -6 -7 -8
leaf_value=-0.10088289170771969 0.002480699362897066 -0.043776824145229737 0.056998485228531674 0.010425278397468624 -0.046450766502107235 0.10823529393536589 0.053272550841617285
leaf_weight=19776 16628 19779 16998 16711 16364 14914 15439
leaf_count=19776 16628 19779 16998 16711 16364 14914 15439
internal_value=0 -0.0474582 0.0538753 -0.0189546 -0.0762373 0.0809452 0.0269354
internal_weight=0 72630 63979 36490 36140 31912 32067
internal_count=136609 72630 63979 36490 36140 31912 32067
is_linear=0
shrinkage=0.05


Tree=4
num_leaves=8
num_cat=0
split_feature=0 1 1 0 0 2 2
split_gain=126475 30035.8 27030.3 10195.6 10113.5 9504.32 9357.67
threshold=525.22528195000007 1.0000000180025095e-35 1.0000000180025095e-35 752.46867170000007 748.91633320000017 1.0000000180025095e-35 1.0000000180025095e-35
decision_type=2 2 2 2 2 2 2
left_child=2 3 5 -2 -3 -1 -4
right_child=1 4 6 -5 -6 -7 -8
leaf_value=-0.11023012395257044 -0.01401232805919877 0.049939312093747981 -0.045686866043635276 0.039219641633390007 0.10297651266275964 -0.055996335795107627 0.0081886024868114381
leaf_weight=16173 17573 17112 15932 18427 18937 16144 16311
leaf_count=16173 17573 17112 15932 18427 18937 16144 16311
internal_value=0 0.0455406 -0.0508233 0.0132352 0.0778015 -0.0831388 -0.0184328
internal_weight=0 72049 64560 36000 36049 32317 32243
internal_count=136609 72049 64560 36000 36049 32317 32243
is_linear=0
shrinkage=0.05


Tree=5
num_leaves=8
num_cat=0
split_feature=0 1 1 0 0 2 2
split_gain=114478 29114.6 22405.5 10773.3 10583.4 7790.32 7774.2
threshold=605.62317590000009 1.0000000180025095e-35 1.0000000180025095e-35 363.21366205000004 345.10207990000009 1.0000000180025095e-35 1.0000000180025095e-35
decision_type=2 2 2 2 2 2 2
left_child=1 4 6 -3 -1 -4 -2
right_child=2 3 5 -5 -6 -7 -8
leaf_value=-0.09817976127584721 -0.0040880937514117532 -0.035189301604374487 0.057031272539137326 0.017780210676270679 -0.045716986907125071 0.10811360172638813 0.046974669302448403
leaf_weight=18585 14986 19812 14923 18621 19916 14936 14830
leaf_count=18585 14986 19812 14923 18621 19916 14936 14830
internal_value=0 -0.0403114 0.05197 -0.00952538 -0.0710425 0.0825849 0.0213101
internal_weight=0 76934 59675 38433 38501 29859 29816
internal_count=136609 76934 59675 38433 38501 29859 29816
is_linear=0
shrinkage=0.05


Tree=6
num_leaves=8
num_cat=0
split_feature=0 1 1 0 0 2 2
split_gain=104015 25690.3 20481.4 10168.3 10096.2 8025.83 7894.86
threshold=496.54705765000006 1.0000000180025095e-35 1.0000000180025095e-35 735.02711350000015 728.34397390000015 1.0000000180025095e-35 1.0000000180025095e-35
decision_type=2 2 2 2 2 2 2
left_child=2 4 5 -3 -2 -1 -4
right_child=1 3 6 -5 -6 -7 -8
leaf_value=-0.10390659967620915 -0.01786953381358105 0.04076276778062881 -0.045857686924725589 0.092355435577616884 0.033740771531391593 -0.052386100231764765 0.0054324264415970339
leaf_weight=15124 17752 18303 14797 19973 20325 15116 15219
leaf_count=15124 17752 18303 14797 19973 20325 15116 15219
internal_value=0 0.0387583 -0.0491122 0.0676855 0.00967945 -0.0781545 -0.0198524
internal_weight=0 76353 60256 38276 38077 30240 30016
internal_count=136609 76353 60256 38276 38077 30240 30016
is_linear=0
shrinkage=0.05


Tree=7
num_leaves=8
num_cat=0
split_feature=0 1 1 2 2 2 2
split_gain=93966.2 22527.6 19376.1 9016.72 9003.28 7578.87 7455.17
threshold=514.42277510000008 1.0000000180025095e-35 1.0000000180025095e-35 1.0000000180025095e-35 1.0000000180025095e-35 1.0000000180025095e-35 1.0000000180025095e-35
decision_type=2 2 2 2 2 2 2
left_child=2 4 5 -3 -2 -1 -4
right_child=1 3 6 -5 -6 -7 -8
leaf_value=-0.09706309280751331 -0.013948437856667485 0.041204512531493806 -0.041715278437668875 0.090660022259176423 0.035517526344429402 -0.04802668547769675 0.0069952325236106935
leaf_weight=15768 18494 18417 15528 18451 18301 15754 15896
leaf_count=15768 18494 18417 15528 18451 18301 15754 15896
internal_value=0 0.0383331 -0.0448596 0.065956 0.010655 -0.0725569 -0.0170751
internal_weight=0 73663 62946 36868 36795 31522 31424
internal_count=136609 73663 62946 36868 36795 31522 31424
is_linear=0
shrinkage=0.05


Tree=8
num_leaves=8
num_cat=0
split_feature=0 0 2 2 2 0 0
split_gain=86681.8 18638.2 12252.9 11363.9 6486.94 4683.27 4675.91
threshold=619.81322220000015 295.14627360000003 1.0000000180025095e-35 1.0000000180025095e-35 1.0000000180025095e-35 824.51977055000009 835.27132135000011
decision_type=2 2 2 2 2 2 2
left_child=1 4 5 -3 -1 -2 -4
right_child=2 3 6 -5 -6 -7 -8
leaf_value=-0.088922086414936152 0.005066095885837436 -0.03921044071132166 0.0523766069618034 0.0087050001908974706 -0.042097103745377819 0.045512075197587605 0.093167848018877397
leaf_weight=14700 15564 24693 16434 24803 14890 13250 12275
leaf_count=14700 15564 24693 16434 24803 14890 13250 12275
internal_value=0 -0.0339675 0.0467005 -0.0151996 -0.0653604 0.0236655 0.0698189
internal_weight=0 79086 57523 49496 29590 28814 28709
internal_count=136609 79086 57523 49496 29590 28814 28709
is_linear=0
shrinkage=0.05


Tree=9
num_leaves=8
num_cat=0
split_feature=0 1 1 0 0 2 2
split_gain=78281.1 22459.1 15376.5 8914.94 8729.66 5381.74 5318.27
threshold=630.6598686000001 1.0000000180025095e-35 1.0000000180025095e-35 341.33394515000003 317.10144230000009 1.0000000180025095e-35 1.0000000180025095e-35
decision_type=2 2 2 2 2 2 2
left_child=1 4 6 -3 -1 -4 -2
right_child=2 3 5 -5 -6 -7 -8
leaf_value=-0.085887783176762086 -0.0025156566713234393 -0.030931186017010632 0.049730736954146794 0.016301858626360726 -0.038577699977193416 0.093591796178539077 0.041120589151533132
leaf_weight=16457 14013 18268 13984 22045 23930 13995 13917
leaf_count=16457 14013 18268 13984 22045 23930 13995 13917
internal_value=0 -0.0315037 0.0454729 -0.00510211 -0.0578566 0.0716712 0.0192278
internal_weight=0 80700 55909 40313 40387 27979 27930
internal_count=136609 80700 55909 40313 40387 27979 27930
is_linear=0
shrinkage=0.05


Tree=10
num_leaves=8
num_cat=0
split_feature=0 1 1 0 0 2 2
split_gain=71221.2 19837.5 14080.3 8489.64 8483.11 5476.98 5418.41
threshold=472.63888670000006 1.0000000180025095e-35 1.0000000180025095e-35 759.83413010000015 763.52947680000011 1.0000000180025095e-35 1.0000000180025095e-35
decision_type=2 2 2 2 2 2 2
left_child=2 4 5 -3 -2 -1 -4
right_child=1 3 6 -5 -6 -7 -8
leaf_value=-0.089784828575205491 -0.015084765952684993 0.034295510245072623 -0.040158642078806595 0.08049699378221177 0.03131569625822294 -0.045834464297224237 0.0037314353236967863
leaf_weight=14209 22342 22049 13885 18111 17617 14149 14247
leaf_count=14209 22342 22049 13885 18111 17617 14149 14247
internal_value=0 0.0303146 -0.0429947 0.0551318 0.00537226 -0.0678573 -0.0179315
internal_weight=0 80119 56490 40160 39959 28358 28132
internal_count=136609 80119 56490 40160 39959 28358 28132
is_linear=0
shrinkage=0.05


Tree=11
num_leaves=8
num_cat=0
split_feature=1 2 2 3 3 3 3
split_gain=30896.2 12331 12135.2 537.979 523.79 482.651 437.977
threshold=1.0000000180025095e-35 1.0000000180025095e-35 1.0000000180025095e-35 25.79558287 28.934581970000004 28.543447520000004 25.893513260000002
decision_type=2 2 2 2 2 2 2
left_child=1 4 5 -3 -1 -2 -4
right_child=2 3 6 -5 -6 -7 -8
leaf_value=-0.050475812600859794 -0.0029543580927345122 -0.0096173638151356173 0.038214114591807395 0.0030561321374376282 -0.038028015016331448 0.0090025248248739431 0.049628067565120559
leaf_weight=19056 18230 14841 14724 19214 15206 15715 19623
leaf_count=19056 18230 14841 14724 19214 15206 15715 19623
internal_value=0 -0.023774 0.0237827 -0.00246697 -0.0449519 0.00258119 0.0447357
internal_weight=0 68317 68292 34055 34262 33945 34347
internal_count=136609 68317 68292 34055 34262 33945 34347
is_linear=0
shrinkage=0.05


Tree=12
num_leaves=8
num_cat=0
split_feature=0 1 1 0 0 0 0
split_gain=64462.9 16699 10847.6 8229.67 8217.5 3186.74 3168.21
threshold=454.66517540000007 1.0000000180025095e-35 1.0000000180025095e-35 724.74734005000016 721.35036370000012 256.53180500000002 228.09879370000002
decision_type=2 2 2 2 2 2 2
left_child=2 3 6 -2 -3 -4 -1
right_child=1 4 5 -5 -6 -7 -8
leaf_value=-0.087877998164425611 -0.017112786998924004 0.027533947225599049 -0.039517920206351372 0.027537339325901133 0.072021053792831399 -0.0047574263106944653 -0.052169229221421178
leaf_weight=9675 20685 20493 11769 20594 21037 14993 17363
leaf_count=9675 20685 20493 11769 20594 21037 14993 17363
internal_value=0 0.0276845 -0.0426119 0.00516312 0.0500695 -0.0200443 -0.0649483
internal_weight=0 82809 53800 41279 41530 26762 27038
internal_count=136609 82809 53800 41279 41530 26762 27038
is_linear=0
shrinkage=0.05


Tree=13
num_leaves=8
num_cat=0
split_feature=0 1 1 0 0 2 2
split_gain=58556 15248.9 9894.45 7152.93 7059.65 4256.39 4196.46
threshold=641.32598475000009 1.0000000180025095e-35 1.0000000180025095e-35 373.79126055000006 380.79323330000005 1.0000000180025095e-35 1.0000000180025095e-35
decision_type=2 2 2 2 2 2 2
left_child=1 4 6 -3 -1 -4 -2
right_child=2 3 5 -5 -6 -7 -8
leaf_value=-0.068038085599320855 -0.00064832966070157007 -0.025849576790563034 0.041860858768303283 0.015847563842842777 -0.026600406644777599 0.081456789306617608 0.038671344850417073
leaf_weight=21360 13609 20625 13585 20515 19814 13567 13534
leaf_count=21360 13609 20625 13585 20515 19814 13567 13534
internal_value=0 -0.0265863 0.0403061 -0.00505681 -0.0480978 0.0616468 0.0189575
internal_weight=0 82314 54295 41140 41174 27152 27143
internal_count=136609 82314 54295 41140 41174 27152 27143
is_linear=0
shrinkage=0.05


Tree=14
num_leaves=8
num_cat=0
split_feature=0 2 1 0 1 2 2
split_gain=52981.9 14356.1 8538.09 7430.5 6929.8 3707.89 3680.5
threshold=655.06024675000015 1.0000000180025095e-35 1.0000000180025095e-35 394.70200595000006 1.0000000180025095e-35 1.0000000180025095e-35 1.0000000180025095e-35
decision_type=2 2 2 2 2 2 2
left_child=1 4 6 -3 -1 -4 -2
right_child=2 3 5 -5 -6 -7 -8
leaf_value=-0.065322431941704895 0.0006661775148652469 -0.023675868995939157 0.041032056293108868 0.018244341837270344 -0.024718845158644521 0.078719314346128791 0.03826667360723221
leaf_weight=21177 13085 22461 13085 19968 20860 13025 12948
leaf_count=21177 13085 22461 13085 19968 20860 13025 12948
internal_value=0 -0.0244653 0.039631 -0.00394733 -0.0451743 0.0598335 0.0193679
internal_weight=0 84466 52143 42429 42037 26110 26033
internal_count=136609 84466 52143 42429 42037 26110 26033
is_linear=0
shrinkage=0.05


Tree=15
num_leaves=8
num_cat=0
split_feature=0 0 1 1 1 0 0
split_gain=48733.9 13632.6 8295.37 8275.25 4227.28 2674.29 2640.98
threshold=451.44708510000004 806.49029580000013 1.0000000180025095e-35 1.0000000180025095e-35 1.0000000180025095e-35 221.10625730000001 228.09879370000002
decision_type=2 2 2 2 2 2 2
left_child=2 3 6 -2 -3 -4 -1
right_child=1 4 5 -5 -6 -7 -8
leaf_value=-0.077856785513703064 -0.010432318980123602 0.032308749509794142 -0.039351254551315058 0.028591996595876957 0.070485348161581945 -0.0059505918371008252 -0.045167851680200856
leaf_weight=9675 27144 14390 9165 27194 14619 17314 17108
leaf_count=9675 27144 14390 9165 27194 14619 17314 17108
internal_value=0 0.0238731 -0.0373577 0.00909788 0.0515486 -0.0175119 -0.0569775
internal_weight=0 83347 53262 54338 29009 26479 26783
internal_count=136609 83347 53262 54338 29009 26479 26783
is_linear=0
shrinkage=0.05


Tree=16
num_leaves=8
num_cat=0
split_feature=0 2 1 1 1 2 2
split_gain=44059.1 11564.1 8377.24 5560.38 5007.12 4050.4 3965.26
threshold=591.46999925000011 1.0000000180025095e-35 1.0000000180025095e-35 1.0000000180025095e-35 1.0000000180025095e-35 1.0000000180025095e-35 1.0000000180025095e-35
decision_type=2 2 2 2 2 2 2
left_child=1 4 6 -3 -1 -4 -2
right_child=2 3 5 -5 -6 -7 -8
leaf_value=-0.063798407599091084 -0.0049979637498773974 -0.025585089769635486 0.031529151065537935 0.012883215558802428 -0.027112158398209681 0.067718868327918555 0.030825898969004617
leaf_weight=18727 15535 18692 15465 18883 18480 15464 15363
leaf_count=18727 15535 18692 15465 18883 18480 15464 15363
internal_value=0 -0.0258189 0.0312288 -0.00625325 -0.0455777 0.0496242 0.0128145
internal_weight=0 74782 61827 37575 37207 30929 30898
internal_count=136609 74782 61827 37575 37207 30929 30898
is_linear=0
shrinkage=0.05


Tree=17
num_leaves=8
num_cat=0
split_feature=0 0 2 2 2 0 0
split_gain=40871.2 11941.4 7667.92 6918.19 3135.28 2369.08 2218.39
threshold=444.03876595000003 821.30610940000008 1.0000000180025095e-35 1.0000000180025095e-35 1.0000000180025095e-35 214.14734100000001 245.68920535000004
decision_type=2 2 2 2 2 2 2
left_child=3 2 -2 5 -3 -1 -5
right_child=1 4 -4 6 -6 -7 -8
leaf_value=-0.074626420442996819 -0.0096420012778352174 0.032072270262875492 0.02685474003191899 -0.033605048113648436 0.066242358983336955 -0.042490974542796565 -0.0041717104792547031
leaf_weight=8551 28702 13527 28864 11119 13330 17427 15089
leaf_count=8551 28702 13527 28864 11119 13330 17427 15089
internal_value=0 0.0215023 0.0086578 -0.0347849 0.0490329 -0.05307 -0.0166595
internal_weight=0 84423 57566 52186 26857 25978 26208
internal_count=136609 84423 57566 52186 26857 25978 26208
is_linear=0
shrinkage=0.05


Tree=18
num_leaves=8
num_cat=0
split_feature=0 0 1 1 2 1 2
split_gain=36893.9 10897.1 7388.77 6535.24 3183.81 3066.47 2956.28
threshold=440.28181640000008 828.15439885000012 1.0000000180025095e-35 1.0000000180025095e-35 1.0000000180025095e-35 1.0000000180025095e-35 1.0000000180025095e-35
decision_type=2 2 2 2 2 2 2
left_child=3 2 -2 6 -5 -3 -1
right_child=1 5 -4 4 -6 -7 -8
leaf_value=-0.067883837895231197 -0.0092748015506091182 0.030070137686897803 0.026059533726092134 -0.033224359139133554 0.0019899032268813946 0.064560397269580877 -0.034142814095804795
leaf_weight=12983 29510 12836 29670 12708 12969 12945 12988
leaf_count=12983 29510 12836 29670 12708 12969 12945 12988
internal_value=0 0.0202593 0.0084402 -0.0333264 -0.0154386 0.0473891 -0.0510111
internal_weight=0 84961 59180 51648 25677 25781 25971
internal_count=136609 84961 59180 51648 25677 25781 25971
is_linear=0
shrinkage=0.05


Tree=19
num_leaves=8
num_cat=0
split_feature=0 0 2 2 2 0 0
split_gain=33816.8 10259.3 7156.46 5281.92 2952.21 2061.94 1941.15
threshold=665.45130135000011 273.98154760000006 1.0000000180025095e-35 1.0000000180025095e-35 1.0000000180025095e-35 871.03671135000002 885.18766530000005
decision_type=2 2 2 2 2 2 2
left_child=1 4 -3 5 -1 -2 -5
right_child=3 2 -4 6 -6 -7 -8
leaf_value=-0.061868419860005776 0.0051301971115479718 -0.024967941612357436 0.0096496383947290935 0.038730114469448282 -0.028401702134044082 0.034456986776276781 0.068047946731979989
leaf_weight=13105 15646 29741 29977 16613 13257 9715 8555
leaf_count=13105 15646 29741 29977 16613 13257 9715 8555
internal_value=0 -0.0190596 -0.00759081 0.0324694 -0.0450394 0.0163648 0.0486969
internal_weight=0 86080 59718 50529 26362 25361 25168
internal_count=136609 86080 59718 50529 26362 25361 25168
is_linear=0
shrinkage=0.05


Tree=20
num_leaves=8
num_cat=0
split_feature=0 1 1 0 0 0 0
split_gain=30588.9 9130.21 6233.29 4307.69 4160.92 2078.17 2029.97
threshold=458.10242695000005 1.0000000180025095e-35 1.0000000180025095e-35 817.63130085000012 846.15498185000013 203.58837990000004 221.10625730000001
decision_type=2 2 2 2 2 2 2
left_child=2 3 6 -2 -3 -4 -1
right_child=1 4 5 -5 -6 -7 -8
leaf_value=-0.065204336595365439 -0.0089109453387574838 0.025912571419477743 -0.033810330361959566 0.025486710554404948 0.061246220511779394 -0.0032454302598982944 -0.036301119706567714
leaf_weight=9127 27382 29670 7827 13633 11586 19209 18175
leaf_count=9127 27382 29670 7827 13633 11586 19209 18175
internal_value=0 0.0192283 -0.0291126 0.00252268 0.035836 -0.0120945 -0.0459644
internal_weight=0 82271 54338 41015 41256 27036 27302
internal_count=136609 82271 54338 41015 41256 27036 27302
is_linear=0
shrinkage=0.05


Tree=21
num_leaves=8
num_cat=0
split_feature=0 1 1 0 0 0 0
split_gain=28060.2 9178.19 4717.66 4373.97 4364.79 1557.24 1493.8
threshold=679.74441825000019 1.0000000180025095e-35 1.0000000180025095e-35 288.08911250000006 284.36391995000002 906.98759205000022 881.47788830000013
decision_type=2 2 2 2 2 2 2
left_child=1 4 6 -3 -1 -4 -2
right_child=2 3 5 -5 -6 -7 -8
leaf_value=-0.05590003229451479 0.0054228252736722221 -0.023460556024084915 0.038148776012926655 0.010262195217947974 -0.022153633187953024 0.066184341004943789 0.031237179085517132
leaf_weight=14038 15223 14192 17351 29815 30187 6934 8869
leaf_count=14038 15223 14192 17351 29815 30187 6934 8869
internal_value=0 -0.0167796 0.0306032 -0.000613338 -0.032866 0.0461549 0.0149263
internal_weight=0 88232 48377 44007 44225 24285 24092
internal_count=136609 88232 48377 44007 44225 24285 24092
is_linear=0
shrinkage=0.05


Tree=22
num_leaves=8
num_cat=0
split_feature=0 2 2 0 1 1 1
split_gain=25380.5 8885.24 4966.32 4119.32 3958.31 2452.78 2202.23
threshold=433.33212805000005 1.0000000180025095e-35 1.0000000180025095e-35 711.22394750000012 1.0000000180025095e-35 1.0000000180025095e-35 1.0000000180025095e-35
decision_type=2 2 2 2 2 2 2
left_child=2 3 6 -2 -3 -4 -1
right_child=1 4 5 -5 -6 -7 -8
leaf_value=-0.058516949258803443 -0.015227468970941162 0.017336123629006033 -0.028069578695922533 0.015695759798583127 0.047695633871650933 0.0029727167026140336 -0.028903537053655778
leaf_weight=12705 21200 21332 12723 21888 21617 12730 12414
leaf_count=12705 21200 21332 12723 21888 21617 12730 12414
internal_value=0 0.0165231 -0.0281103 0.000481026 0.032617 -0.0125444 -0.0438826
internal_weight=0 86037 50572 43088 42949 25453 25119
internal_count=136609 86037 50572 43088 42949 25453 25119
is_linear=0
shrinkage=0.05


Tree=23
num_leaves=8
num_cat=0
split_feature=0 1 1 0 0 0 0
split_gain=23394.4 7640.57 4044.68 3749.56 3634.43 1399.47 1338.61
threshold=679.74441825000019 1.0000000180025095e-35 1.0000000180025095e-35 270.37035235000008 270.37035235000008 914.38176710000016 885.18766530000005
decision_type=2 2 2 2 2 2 2
left_child=1 4 6 -3 -1 -4 -2
right_child=2 3 5 -5 -6 -7 -8
leaf_value=-0.052270668940027458 0.0046388606569224338 -0.023269287500110151 0.035164960239743387 0.0088131139052236625 -0.020773415340917489 0.062419389601956754 0.029232620112933923
leaf_weight=12952 15483 12872 17890 31135 31273 6395 8609
leaf_count=12952 15483 12872 17890 31135 31273 6395 8609
internal_value=0 -0.0153212 0.0279433 -0.000571112 -0.0299984 0.042343 0.0134276
internal_weight=0 88232 48377 44007 44225 24285 24092
internal_count=136609 88232 48377 44007 44225 24285 24092
is_linear=0
shrinkage=0.05


Tree=24
num_leaves=8
num_cat=0
split_feature=0 2 2 0 0 0 0
split_gain=21156.5 7263.61 5262.87 2949.42 2578.3 1830.25 1734.42
threshold=493.38001445000003 1.0000000180025095e-35 1.0000000180025095e-35 856.88042515000006 814.04912100000013 214.14734100000001 203.58837990000004
decision_type=2 2 2 2 2 2 2
left_child=2 3 5 -2 -3 -1 -4
right_child=1 4 6 -5 -6 -7 -8
leaf_value=-0.056787183494082585 -0.0066067952276325425 0.023002911749746849 -0.027804972343160279 0.024195007931511942 0.049999705197084535 -0.029364356976202141 -0.00045297241481817655
leaf_weight=8551 27761 24494 7840 10793 13843 21102 22225
leaf_count=8551 27761 24494 7840 10793 13843 21102 22225
internal_value=0 0.0173407 -0.0223272 0.00201622 0.0327516 -0.0372731 -0.00758585
internal_weight=0 76891 59718 38554 38337 29653 30065
internal_count=136609 76891 59718 38554 38337 29653 30065
is_linear=0
shrinkage=0.05


Tree=25
num_leaves=8
num_cat=0
split_feature=0 2 2 1 1 1 1
split_gain=19361.8 7297.05 3985.36 3496.31 3179.47 2019.55 1773.24
threshold=665.45130135000011 1.0000000180025095e-35 1.0000000180025095e-35 1.0000000180025095e-35 1.0000000180025095e-35 1.0000000180025095e-35 1.0000000180025095e-35
decision_type=2 2 2 2 2 2 2
left_child=1 4 5 -3 -1 -2 -4
right_child=2 3 6 -5 -6 -7 -8
leaf_value=-0.042552211000227991 -0.0035526515585047598 -0.014208880458863052 0.025333896490489477 0.014228614231321601 -0.015309911826339695 0.024666114083203138 0.051879418694510064
leaf_weight=21602 12660 21525 12530 21709 21244 12701 12638
leaf_count=21602 12660 21525 12530 21709 21244 12701 12638
internal_value=0 -0.0144219 0.0245687 7.038e-05 -0.0290452 0.0105797 0.0386644
internal_weight=0 86080 50529 43234 42846 25361 25168
internal_count=136609 86080 50529 43234 42846 25361 25168
is_linear=0
shrinkage=0.05


Tree=26
num_leaves=8
num_cat=0
split_feature=2 1 1 3 3 3 3
split_gain=10072.5 4753.79 4751.16 463.175 450.282 443.904 398.491
threshold=1.0000000180025095e-35 1.0000000180025095e-35 1.0000000180025095e-35 28.257382000000003 25.498890920000004 28.543447520000004 29.215298705000006
decision_type=2 2 2 2 2 2 2
left_child=1 4 3 -2 -1 -3 -4
right_child=2 5 6 -5 -6 -7 -8
leaf_value=-0.033526090956389865 -0.0051360881433197107 -0.0056432136023372801 0.021949132471160482 0.0065512724612056088 -0.021895380154733215 0.0058236647926505312 0.032813479337749203
leaf_weight=14255 18147 18230 19396 15908 20007 15715 14951
leaf_count=14255 18147 18230 19396 15908 20007 15715 14951
internal_value=0 -0.0135962 0.0135574 0.000323406 -0.0267349 -0.00033456 0.0266787
internal_weight=0 68207 68402 34055 34262 33945 34347
internal_count=136609 68207 68402 34055 34262 33945 34347
is_linear=0
shrinkage=0.05


Tree=27
num_leaves=8
num_cat=0
split_feature=0 2 2 0 0 1 1
split_gain=18131.2 6029.88 3157.3 2942.17 2735.6 1565.44 1376.39
threshold=418.87436825000003 1.0000000180025095e-35 1.0000000180025095e-35 856.88042515000006 777.74056350000012 1.0000000180025095e-35 1.0000000180025095e-35
decision_type=2 2 2 2 2 2 2
left_child=2 3 6 -2 -3 -4 -1
right_child=1 4 5 -5 -6 -7 -8
leaf_value=-0.049235797141553024 -0.0069010976156075043 0.016929854400160312 -0.024591864467372257 0.023131412595253694 0.04266827492284897 0.00075484299035653195 -0.025310870078734962
leaf_weight=12187 33360 27511 12162 10793 16525 12204 11867
leaf_count=12187 33360 27511 12162 10793 16525 12204 11867
internal_value=0 0.0134974 -0.0245831 0.000440392 0.0265889 -0.0118969 -0.0374332
internal_weight=0 88189 48420 44153 44036 24366 24054
internal_count=136609 88189 48420 44153 44036 24366 24054
is_linear=0
shrinkage=0.05


Tree=28
num_leaves=8
num_cat=0
split_feature=0 1 2 2 2 1 1
split_gain=16378 5609.45 2795.68 2787.19 2675.81 1390.74 1211.27
threshold=412.08154790000009 1.0000000180025095e-35 1.0000000180025095e-35 1.0000000180025095e-35 1.0000000180025095e-35 1.0000000180025095e-35 1.0000000180025095e-35
decision_type=2 2 2 2 2 2 2
left_child=2 3 6 -2 -3 -4 -1
right_child=1 4 5 -5 -6 -7 -8
leaf_value=-0.047177746162133188 -0.012432945964605681 0.012864345001603925 -0.023805565440838027 0.012593307064436421 0.037313782638593154 0.00035882214085585477 -0.024483203690561114
leaf_weight=11935 22327 22353 11881 22174 22411 11936 11592
leaf_count=11935 22327 22353 11881 22174 22411 11936 11592
internal_value=0 0.0126082 -0.023772 3.71602e-05 0.0251052 -0.0116957 -0.0359967
internal_weight=0 89265 47344 44501 44764 23817 23527
internal_count=136609 89265 47344 44501 44764 23817 23527
is_linear=0
shrinkage=0.05


Tree=29
num_leaves=8
num_cat=0
split_feature=0 0 2 2 2 0 0
split_gain=15230.9 5232.88 3688.06 2467.67 1353.42 1053.85 975.991
threshold=683.14133835000018 263.51144425000007 1.0000000180025095e-35 1.0000000180025095e-35 1.0000000180025095e-35 903.52829695000003 910.8450095500001
decision_type=2 2 2 2 2 2 2
left_child=1 4 -3 6 -1 -5 -2
right_child=3 2 -4 5 -6 -7 -8
leaf_value=-0.043547967472989092 0.0051408543336066226 -0.01675461356314404 0.0072466499747727859 0.027202789565789687 -0.02016071149270179 0.050080810202807337 0.027573610427992213
leaf_weight=12296 17283 31889 32133 16589 12452 7228 6739
leaf_count=12296 17283 31889 32133 16589 12452 7228 6739
internal_value=0 -0.012256 -0.00470828 0.0227422 -0.0317813 0.0341467 0.0114345
internal_weight=0 88770 64022 47839 24748 23817 24022
internal_count=136609 88770 64022 47839 24748 23817 24022
is_linear=0
shrinkage=0.05


Tree=30
num_leaves=8
num_cat=0
split_feature=0 1 1 2 2 2 0
split_gain=13774.4 3929.09 3576.57 1942.23 1794.16 1547.15 1462.35
threshold=580.82300325000017 1.0000000180025095e-35 1.0000000180025095e-35 1.0000000180025095e-35 1.0000000180025095e-35 1.0000000180025095e-35 874.53972120000014
decision_type=2 2 2 2 2 2 2
left_child=1 4 5 -3 -1 -2 -4
right_child=2 3 6 -5 -6 -7 -8
leaf_value=-0.037411268198122891 -0.0058220072606678316 -0.014829570629106321 0.021953100558068983 0.0082270547735819877 -0.015279109094906221 0.016274651373215064 0.045461430929006834
leaf_weight=18332 15930 18081 22358 18457 18298 15757 9396
leaf_count=18332 15930 18081 22358 18457 18298 15757 9396
internal_value=0 -0.0147839 0.0170506 -0.00318267 -0.0263558 0.00516609 0.0289098
internal_weight=0 73168 63441 36538 36630 31687 31754
internal_count=136609 73168 63441 36538 36630 31687 31754
is_linear=0
shrinkage=0.05


Tree=31
num_leaves=8
num_cat=0
split_feature=0 1 0 0 1 2 0
split_gain=12696.6 4638.17 2325.66 2132.17 2075.22 1036.97 946.399
threshold=405.30303650000002 1.0000000180025095e-35 849.78028500000016 792.49507495000012 1.0000000180025095e-35 1.0000000180025095e-35 185.40083835000004
decision_type=2 2 2 2 2 2 2
left_child=4 2 -2 -3 6 -6 -1
right_child=1 3 -4 -5 5 -7 -8
leaf_value=-0.048086115774901517 -0.0070096635793896571 0.014296699182990891 0.019248657614321624 0.037082821206134486 -0.021397938479324918 -0.00015237128113654806 -0.025571600542189737
leaf_weight=6460 33790 29595 11236 15720 11340 11637 16831
leaf_count=6460 33790 29595 11236 15720 11340 11637 16831
internal_value=0 0.0109087 -0.000456898 0.0222016 -0.0212997 -0.0106381 -0.0318171
internal_weight=0 90341 45026 45315 46268 22977 23291
internal_count=136609 90341 45026 45315 46268 22977 23291
is_linear=0
shrinkage=0.05


Tree=32
num_leaves=8
num_cat=0
split_feature=0 0 2 2 2 1 1
split_gain=11594.1 4334.77 3043.37 2065.25 1044.8 1029.94 1000.24
threshold=693.77713785000003 263.51144425000007 1.0000000180025095e-35 1.0000000180025095e-35 1.0000000180025095e-35 1.0000000180025095e-35 1.0000000180025095e-35
decision_type=2 2 2 2 2 2 2
left_child=1 4 -3 5 -1 -2 -5
right_child=3 2 -4 6 -6 -7 -8
leaf_value=-0.038587526784569469 -0.00070502977666058613 -0.014501088079835378 0.0070319921808014163 0.020475698724193542 -0.018039034600341498 0.020356027005175942 0.041329148083559281
leaf_weight=12296 11585 32692 32944 11412 12452 11634 11594
leaf_count=12296 11585 32692 32944 11412 12452 11634 11594
internal_value=0 -0.010417 -0.00369324 0.0203683 -0.0282491 0.00984793 0.0309856
internal_weight=0 90384 65636 46225 24748 23219 23006
internal_count=136609 90384 65636 46225 24748 23219 23006
is_linear=0
shrinkage=0.05


Tree=33
num_leaves=8
num_cat=0
split_feature=0 1 0 2 1 0 2
split_gain=10540.9 4019.29 2052.68 1945.85 1837.75 864.842 834.152
threshold=398.22914155000007 1.0000000180025095e-35 842.65408095000009 1.0000000180025095e-35 1.0000000180025095e-35 196.19708225000002 1.0000000180025095e-35
decision_type=2 2 2 2 2 2 2
left_child=4 2 -2 -3 6 -6 -1
right_child=1 3 -4 -5 5 -7 -8
leaf_value=-0.039348909770572149 -0.0070113181229953985 0.0098926030597265308 0.017226929317013941 0.030496857422423702 -0.023771624771153008 -0.0028101683577153938 -0.020193024807849045
leaf_weight=11371 33803 22862 11778 22974 7282 15174 11365
leaf_count=11371 33803 22862 11778 22974 7282 15174 11365
internal_value=0 0.00976531 -0.000748104 0.0202201 -0.0197537 -0.0096079 -0.0297741
internal_weight=0 91417 45581 45836 45192 22456 22736
internal_count=136609 91417 45581 45836 45192 22456 22736
is_linear=0
shrinkage=0.05


Tree=34
num_leaves=8
num_cat=0
split_feature=0 0 2 2 2 0 0
split_gain=9788.77 3616.11 2753.84 1755.94 777.75 750.353 709.387
threshold=697.34722310000018 238.57526390000001 1.0000000180025095e-35 1.0000000180025095e-35 1.0000000180025095e-35 914.38176710000016 921.51607305000005
decision_type=2 2 2 2 2 2 2
left_child=1 4 -3 6 -1 -5 -2
right_child=3 2 -4 5 -6 -7 -8
leaf_value=-0.037413131324061703 0.0039200192523129937 -0.013975454556941356 0.0058674497711273697 0.023025114812030248 -0.01815785791298442 0.043196704794323561 0.023977324557717023
leaf_weight=10389 16995 34871 35069 16312 10593 6428 5952
leaf_count=10389 16995 34871 35069 16312 10593 6428 5952
internal_value=0 -0.00948759 -0.00402594 0.0188812 -0.0276926 0.0287279 0.0091229
internal_weight=0 90922 69940 45687 20982 22740 22947
internal_count=136609 90922 69940 45687 20982 22740 22947
is_linear=0
shrinkage=0.05


Tree=35
num_leaves=8
num_cat=0
split_feature=1 2 2 3 3 3 3
split_gain=5340.69 2363.01 2291.11 410.666 410.185 403.787 375.182
threshold=1.0000000180025095e-35 1.0000000180025095e-35 1.0000000180025095e-35 28.257382000000003 25.987833065000004 27.574943540000003 24.808744835000002
decision_type=2 2 2 2 2 2 2
left_child=1 5 4 -3 -2 -1 -4
right_child=2 3 6 -5 -6 -7 -8
leaf_value=-0.024578220092030811 -0.0055750991312106665 -0.0056977574867060586 0.012413284528213313 0.0053071974988070543 0.0055084614702158082 -0.013721392554281248 0.023143668482602579
leaf_weight=17147 14801 18147 13289 15908 19144 17115 21058
leaf_count=17147 14801 18147 13289 15908 19144 17115 21058
internal_value=0 -0.00988435 0.00988797 -0.000557047 0.000675698 -0.0191552 0.0189923
internal_weight=0 68317 68292 34055 33945 34262 34347
internal_count=136609 68317 68292 34055 33945 34262 34347
is_linear=0
shrinkage=0.05


Tree=36
num_leaves=8
num_cat=0
split_feature=0 1 1 0 0 0 0
split_gain=8861.65 2464.48 2347.91 1220.97 1189.23 1170.73 1118.85
threshold=542.7727331000001 1.0000000180025095e-35 1.0000000180025095e-35 196.19708225000002 881.47788830000013 896.20853675000012 196.19708225000002
decision_type=2 2 2 2 2 2 2
left_child=2 4 6 -4 -2 -3 -1
right_child=1 5 3 -5 -6 -7 -8
leaf_value=-0.039674825582855573 -0.0023193576972573128 0.017036116063237825 -0.021701934550191624 0.001431010057999072 0.018904467388731815 0.03909332279926897 -0.017492248870890605
leaf_weight=7244 25797 26948 7282 26317 8869 7745 26407
leaf_count=7244 25797 26948 7282 26317 8869 7745 26407
internal_value=0 0.0125395 -0.0129328 -0.0035829 0.00311077 0.0219607 -0.022268
internal_weight=0 69359 67250 33599 34666 34693 33651
internal_count=136609 69359 67250 33599 34666 34693 33651
is_linear=0
shrinkage=0.05


Tree=37
num_leaves=8
num_cat=0
split_feature=0 0 1 2 1 1 1
split_gain=8098.3 3013.35 2089.34 1430.71 847.244 730.963 627.45
threshold=697.34722310000018 288.08911250000006 1.0000000180025095e-35 1.0000000180025095e-35 1.0000000180025095e-35 1.0000000180025095e-35 1.0000000180025095e-35
decision_type=2 2 2 2 2 2 2
left_child=1 4 -3 5 -1 -2 -5
right_child=3 2 -4 6 -6 -7 -8
leaf_value=-0.030675338354852956 -0.00057073913920329463 -0.011607691068932441 0.006689414856525854 0.01768388353880207 -0.013436927894836701 0.01727686587481559 0.034296862608801111
leaf_weight=14322 11458 31264 31144 11273 14192 11489 11467
leaf_count=14322 11458 31264 31144 11273 14192 11489 11467
internal_value=0 -0.00862956 -0.00247675 0.0171737 -0.0220958 0.0083653 0.0260618
internal_weight=0 90922 62408 45687 28514 22947 22740
internal_count=136609 90922 62408 45687 28514 22947 22740
is_linear=0
shrinkage=0.05


Tree=38
num_leaves=8
num_cat=0
split_feature=0 2 0 0 1 0 2
split_gain=7381.67 2560.93 1624.8 1289.05 1251.19 1108.82 380.349
threshold=479.50196985000008 1.0000000180025095e-35 185.40083835000004 871.03671135000002 1.0000000180025095e-35 896.20853675000012 1.0000000180025095e-35
decision_type=2 2 2 2 2 2 2
left_child=2 3 6 -2 -4 -3 -1
right_child=1 5 4 -5 -6 -7 -8
leaf_value=-0.037875743447818778 -0.0041995603751231693 0.014797230776831495 -0.017436663745809784 0.016763815910800738 -0.00069751390065543931 0.035911547204073989 -0.020709163571806369
leaf_weight=6416 29904 31688 22420 9715 22234 7736 6496
leaf_count=6416 29904 31688 22420 9715 22234 7736 6496
internal_value=0 0.00991878 -0.0136193 0.000941029 -0.00910205 0.0189408 -0.0292404
internal_weight=0 79043 57566 39619 44654 39424 12912
internal_count=136609 79043 57566 39619 44654 39424 12912
is_linear=0
shrinkage=0.05


Tree=39
num_leaves=8
num_cat=0
split_feature=0 2 0 1 1 2 0
split_gain=6738.47 2741.32 1347.34 1249.52 1190.84 608.776 566.224
threshold=707.89814930000011 1.0000000180025095e-35 305.98772940000009 1.0000000180025095e-35 1.0000000180025095e-35 1.0000000180025095e-35 928.65370170000017
decision_type=2 2 2 2 2 2 2
left_child=1 3 -3 -1 5 -2 -6
right_child=4 2 -4 -5 6 -7 -8
leaf_value=-0.024493410983403161 -0.00040230363685635879 -0.011004131799408783 0.0069862836606460425 -0.0080193766933439534 0.019777523455267589 0.016250534698074495 0.03849990912020694
leaf_weight=23175 11087 15727 30765 22869 16802 10867 5317
leaf_count=23175 11087 15727 30765 22869 16802 10867 5317
internal_value=0 -0.00766376 0.000900554 -0.0163113 0.0160908 0.00784086 0.0242788
internal_weight=0 92536 46492 46044 44073 21954 22119
internal_count=136609 92536 46492 46044 44073 21954 22119
is_linear=0
shrinkage=0.05


Tree=40
num_leaves=8
num_cat=0
split_feature=0 1 0 2 2 1 0
split_gain=6253.19 2466.48 1233.37 1192.96 1157.03 581.2 511.147
threshold=394.70200595000006 1.0000000180025095e-35 867.57590630000016 1.0000000180025095e-35 1.0000000180025095e-35 1.0000000180025095e-35 166.88399605000004
decision_type=2 2 2 2 2 2 2
left_child=4 2 -2 -3 6 -6 -1
right_child=1 3 -4 -5 5 -7 -8
leaf_value=-0.037394774491028418 -0.0050657142905389356 0.0075557694784829073 0.014850612133700095 0.023641616773062639 -0.015394252905720194 0.0006915418372712912 -0.019318215852333759
leaf_weight=5069 35931 22990 9919 23115 11229 11232 17124
leaf_count=5069 35931 22990 9919 23115 11229 11232 17124
internal_value=0 0.00745459 -0.000756983 0.0156207 -0.015351 -0.00735044 -0.0234477
internal_weight=0 91955 45850 46105 44654 22461 22193
internal_count=136609 91955 45850 46105 44654 22461 22193
is_linear=0
shrinkage=0.05


Tree=41
num_leaves=8
num_cat=0
split_feature=2 1 1 3 3 3 3
split_gain=3275.23 1633.17 1593.52 374.172 369.537 365.601 343.234
threshold=1.0000000180025095e-35 1.0000000180025095e-35 1.0000000180025095e-35 25.893513260000002 25.088623825000003 29.602869560000006 24.198348415000002
decision_type=2 2 2 2 2 2 2
left_child=1 5 4 -3 -2 -1 -4
right_child=2 3 6 -5 -6 -7 -8
leaf_value=-0.019812711500647992 -0.0062325646495467717 -0.0059971187769317031 0.008712337346157055 0.004599676268725753 0.0043730809448027912 -0.0093331143263635039 0.019105442103132551
leaf_weight=20011 13828 14670 12478 19275 20227 14251 21869
leaf_count=20011 13828 14670 12478 19275 20227 14251 21869
internal_value=0 -0.007753 0.0077309 2.00418e-05 6.66405e-05 -0.015454 0.0153299
internal_weight=0 68207 68402 33945 34055 34262 34347
internal_count=136609 68207 68402 33945 34055 34262 34347
is_linear=0
shrinkage=0.05


Tree=42
num_leaves=8
num_cat=0
split_feature=0 0 2 0 1 1 1
split_gain=5720.64 1891.78 1573.87 1305.87 939.28 316.695 299.978
threshold=619.81322220000015 199.81800395000002 1.0000000180025095e-35 914.38176710000016 1.0000000180025095e-35 1.0000000180025095e-35 1.0000000180025095e-35
decision_type=2 2 2 2 2 2 2
left_child=1 5 -3 4 -2 -1 -5
right_child=3 2 -4 6 -6 -7 -8
leaf_value=-0.03194803822996533 0.00067301994912347758 -0.012840372078981128 0.0028386607922461192 0.018443936887352002 0.015179427306684338 -0.017446195078247413 0.033703632683948506
leaf_weight=7501 22248 31905 32117 6493 22387 7563 6395
leaf_count=7501 22248 31905 32117 6493 22387 7563 6395
internal_value=0 -0.00872615 -0.00497494 0.0119972 0.0079489 -0.0246681 0.0260168
internal_weight=0 79086 64022 57523 44635 15064 12888
internal_count=136609 79086 64022 57523 44635 15064 12888
is_linear=0
shrinkage=0.05


Tree=43
num_leaves=8
num_cat=0
split_feature=0 0 2 0 2 2 1
split_gain=5206.35 2034.18 1540.31 910.321 720.178 424.857 162.854
threshold=398.22914155000007 867.57590630000016 1.0000000180025095e-35 156.21145250000004 1.0000000180025095e-35 1.0000000180025095e-35 1.0000000180025095e-35
decision_type=2 2 2 2 2 2 2
left_child=3 2 -2 6 -5 -3 -1
right_child=1 5 -4 4 -6 -7 -8
leaf_value=-0.035400302226105296 -0.004405374418162516 0.013742203651974547 0.010267073146385058 -0.017500045901551489 -0.0034692068290553286 0.028366455945692107 -0.021639600539051698
leaf_weight=4298 35766 9987 35782 18176 18408 9882 4310
leaf_count=4298 35766 9987 35782 18176 18408 9882 4310
internal_value=0 0.006863 0.00293251 -0.0138828 -0.0104403 0.0210162 -0.028512
internal_weight=0 91417 71548 45192 36584 19869 8608
internal_count=136609 91417 71548 45192 36584 19869 8608
is_linear=0
shrinkage=0.05


Tree=44
num_leaves=8
num_cat=0
split_feature=1 2 2 3 3 3 3
split_gain=2765.14 1282.8 1246.51 342.575 339.243 334.511 320.372
threshold=1.0000000180025095e-35 1.0000000180025095e-35 1.0000000180025095e-35 28.543447520000004 28.735525035000006 25.393918165000006 28.449906860000002
decision_type=2 2 2 2 2 2 2
left_child=1 5 3 -2 -3 -1 -4
right_child=2 4 6 -5 -6 -7 -8
leaf_value=-0.019844371533039678 -0.0043437442092350642 -0.0047317690581691382 0.0093015558172383824 0.0057297134190289539 0.0053042080047901409 -0.0098065168032633928 0.018979862038281756
leaf_weight=14118 18230 18813 18276 15715 15242 20144 16071
leaf_count=14118 18230 18813 18276 15715 15242 20144 16071
internal_value=0 -0.00711226 0.00711486 0.000319827 -0.000239954 -0.0139429 0.0138303
internal_weight=0 68317 68292 33945 34055 34262 34347
internal_count=136609 68317 68292 33945 34055 34262 34347
is_linear=0
shrinkage=0.05


Tree=45
num_leaves=8
num_cat=0
split_feature=1 2 2 3 3 3 3
split_gain=2495.54 1157.73 1124.98 312.99 307.66 306.25 294.765
threshold=1.0000000180025095e-35 1.0000000180025095e-35 1.0000000180025095e-35 24.704949805000002 31.173791795000003 29.692323220000002 31.578860015000004
decision_type=2 2 2 2 2 2 2
left_child=1 5 3 -2 -3 -1 -4
right_child=2 4 6 -5 -6 -7 -8
leaf_value=-0.01720517494542613 -0.005760699184497029 -0.0037165548950617877 0.0098034930776567421 0.0041047172843880131 0.0062459496933375009 -0.007601519691506263 0.019572250088716076
leaf_weight=20136 13078 22130 22621 20867 11925 14126 11726
leaf_count=20136 13078 22130 22621 20867 11925 14126 11726
internal_value=0 -0.00675666 0.00675913 0.000303837 -0.000227956 -0.0132458 0.0131388
internal_weight=0 68317 68292 33945 34055 34262 34347
internal_count=136609 68317 68292 33945 34055 34262 34347
is_linear=0
shrinkage=0.05


Tree=46
num_leaves=8
num_cat=0
split_feature=1 2 2 3 3 3 3
split_gain=2252.23 1044.85 1015.3 291.881 289.868 283.134 275.806
threshold=1.0000000180025095e-35 1.0000000180025095e-35 1.0000000180025095e-35 21.828643345000007 29.894855055000004 23.710726085000005 23.417454070000002
decision_type=2 2 2 2 2 2 2
left_child=1 5 4 -3 -2 -1 -4
right_child=2 3 6 -5 -6 -7 -8
leaf_value=-0.018834831309692081 -0.0035420432893988915 -0.0077395573796966953 0.006149220527369016 0.002631581995747318 0.0058614602005906766 -0.0092783552644442723 0.015652107610332974
leaf_weight=11849 20117 9352 11459 24703 13828 22413 22888
leaf_count=11849 20117 9352 11459 24703 13828 22413 22888
internal_value=0 -0.00641883 0.00642118 -0.000216556 0.000288643 -0.0125835 0.0124818
internal_weight=0 68317 68292 34055 33945 34262 34347
internal_count=136609 68317 68292 34055 33945 34262 34347
is_linear=0
shrinkage=0.05


Tree=47
num_leaves=8
num_cat=0
split_feature=0 0 1 0 2 0 1
split_gain=4801.98 1860.4 1159.84 775.175 455.036 336.682 173.293
threshold=707.89814930000011 238.57526390000001 1.0000000180025095e-35 928.65370170000017 1.0000000180025095e-35 152.59086460000003 1.0000000180025095e-35
decision_type=2 2 2 2 2 2 2
left_child=1 5 -3 4 -2 -1 -5
right_child=3 2 -4 6 -6 -7 -8
leaf_value=-0.027573181564483847 0.0040065252582483614 -0.0089819174500593672 0.0037496207894174255 0.018973123990090952 0.01569058415753237 -0.014553278747450766 0.031680291704729316
leaf_weight=8070 16751 35857 35697 5423 16582 12912 5317
leaf_count=8070 16751 35857 35697 5423 16582 12912 5317
internal_value=0 -0.00646951 -0.0026304 0.0135833 0.00981908 -0.0195615 0.0252652
internal_weight=0 92536 71554 44073 33333 20982 10740
internal_count=136609 92536 71554 44073 33333 20982 10740
is_linear=0
shrinkage=0.05


Tree=48
num_leaves=8
num_cat=0
split_feature=0 0 0 2 1 1 2
split_gain=4364.96 1393.52 988.68 926.282 612.745 233.345 161.442
threshold=479.50196985000008 888.83437880000008 177.92209805000002 1.0000000180025095e-35 1.0000000180025095e-35 1.0000000180025095e-35 1.0000000180025095e-35
decision_type=2 2 2 2 2 2 2
left_child=2 3 6 -2 -4 -3 -1
right_child=1 5 4 -5 -6 -7 -8
leaf_value=-0.029226449484203856 -0.0018828345254094615 0.014569889024440355 -0.012906062321114818 0.010301208487815154 -0.0013305268809296722 0.026411129304288284 -0.017543808958242937
leaf_weight=5884 31255 8339 22947 31141 22783 8308 5952
leaf_count=5884 31255 8339 22947 31141 22783 8308 5952
internal_value=0 0.0076273 -0.0104729 0.00419809 -0.00713913 0.0204801 -0.0233526
internal_weight=0 79043 57566 62396 45730 16647 11836
internal_count=136609 79043 57566 62396 45730 16647 11836
is_linear=0
shrinkage=0.05


Tree=49
num_leaves=8
num_cat=0
split_feature=1 2 2 3 3 3 3
split_gain=1820.85 870.465 844.536 266.269 265.812 258.714 253.545
threshold=1.0000000180025095e-35 1.0000000180025095e-35 1.0000000180025095e-35 25.088623825000003 24.399441445000004 29.692323220000002 31.861232405000003
decision_type=2 2 2 2 2 2 2
left_child=1 5 4 -3 -2 -1 -4
right_child=2 3 6 -5 -6 -7 -8
leaf_value=-0.015037364289920668 -0.0055409447013813028 -0.0054574785666647082 0.0082858294335871243 0.0035451404588476101 0.0036020144662332145 -0.0062105191035922123 0.017422078204375174
leaf_weight=20136 12703 13828 23012 20227 21242 14126 11335
leaf_count=20136 12703 13828 23012 20227 21242 14126 11335
internal_value=0 -0.00577147 0.00577358 -0.000110391 0.000180478 -0.0113983 0.0113011
internal_weight=0 68317 68292 34055 33945 34262 34347
internal_count=136609 68317 68292 34055 33945 34262 34347
is_linear=0
shrinkage=0.05


Tree=50
num_leaves=8
num_cat=0
split_feature=0 0 1 0 1 0 2
split_gain=3999.06 1455.37 889.445 711.426 423.831 214.584 143.095
threshold=683.14133835000018 217.53660210000001 1.0000000180025095e-35 928.65370170000017 1.0000000180025095e-35 145.40669460000004 1.0000000180025095e-35
decision_type=2 2 2 2 2 2 2
left_child=1 5 -3 4 -2 -1 -5
right_child=3 2 -4 6 -6 -7 -8
leaf_value=-0.02590257223943639 0.0029827669271141046 -0.0086541462918146104 0.0025371830212691064 0.017256169566100849 0.013671644740740497 -0.014651140268233359 0.028803018352828211
leaf_weight=6994 18393 35638 35378 5412 18706 10760 5328
leaf_count=6994 18393 35638 35378 5412 18706 10760 5328
internal_value=0 -0.00628011 -0.00307899 0.0116533 0.00837241 -0.0190841 0.0229855
internal_weight=0 88770 71016 47839 37099 17754 10740
internal_count=136609 88770 71016 47839 37099 17754 10740
is_linear=0
shrinkage=0.05


Tree=51
num_leaves=8
num_cat=0
split_feature=0 0 2 0 2 0 2
split_gain=3653.57 1450.96 744.1 562.501 402.663 402.249 96.6445
threshold=387.53203000000002 792.49507495000012 1.0000000180025095e-35 156.21145250000004 1.0000000180025095e-35 950.25352845000009 1.0000000180025095e-35
decision_type=2 2 2 2 2 2 2
left_child=3 2 -2 6 -5 -3 -1
right_child=1 5 -4 4 -6 -7 -8
leaf_value=-0.028728076505833186 -0.0043344122505629256 0.011191179492716282 0.0066322394994337529 -0.014524843340555031 -0.0037940149286100726 0.024469122375937246 -0.018126607213527348
leaf_weight=4278 30845 23643 31025 17384 17586 7518 4330
leaf_count=4278 30845 23643 31025 17384 17586 7518 4330
internal_value=0 0.0055964 0.00116488 -0.0119472 -0.00912857 0.014395 -0.0233967
internal_weight=0 93031 61870 43578 34970 31161 8608
internal_count=136609 93031 61870 43578 34970 31161 8608
is_linear=0
shrinkage=0.05


Tree=52
num_leaves=8
num_cat=0
split_feature=1 2 2 3 3 3 3
split_gain=1513.54 719.726 698.529 247.932 246.989 239.49 238.653
threshold=1.0000000180025095e-35 1.0000000180025095e-35 1.0000000180025095e-35 31.076348940000003 31.173791795000003 23.710726085000005 23.417454070000002
decision_type=2 2 2 2 2 2 2
left_child=1 5 3 -2 -3 -1 -4
right_child=2 4 6 -5 -6 -7 -8
leaf_value=-0.016127674778089476 -0.0030243618605996377 -0.0032400676772594336 0.0044003519884369619 0.0058804727667435917 0.0056862329875496812 -0.0073386488055822881 0.013239945581801443
leaf_weight=11849 21741 22130 11459 12204 11925 22413 22888
leaf_count=11849 21741 22130 11459 12204 11925 22413 22888
internal_value=0 -0.00526194 0.00526386 0.000177168 -0.000114318 -0.0103784 0.0102909
internal_weight=0 68317 68292 33945 34055 34262 34347
internal_count=136609 68317 68292 33945 34055 34262 34347
is_linear=0
shrinkage=0.05


Tree=53
num_leaves=8
num_cat=0
split_feature=0 0 0 1 2 1 2
split_gain=3327.52 887.428 878.684 578.997 527.204 147.617 143.645
threshold=549.79702305000012 196.19708225000002 910.8450095500001 1.0000000180025095e-35 1.0000000180025095e-35 1.0000000180025095e-35 1.0000000180025095e-35
decision_type=2 2 2 2 2 2 2
left_child=1 5 3 -2 -3 -1 -4
right_child=2 4 6 -5 -6 -7 -8
leaf_value=-0.023821168779482274 -0.00014372229116699559 -0.009814444046974645 0.014117740671737242 0.010129729565712554 8.4792816627352353e-05 -0.013738266129309964 0.024464102077595709
leaf_weight=7244 27392 26765 6739 27466 27035 7282 6686
leaf_count=7244 27392 26765 6739 27466 27035 7282 6686
internal_value=0 -0.00780104 0.00780594 0.00499998 -0.00484003 -0.0187672 0.0192712
internal_weight=0 68326 68283 54858 53800 14526 13425
internal_count=136609 68326 68283 54858 53800 14526 13425
is_linear=0
shrinkage=0.05


Tree=54
num_leaves=8
num_cat=0
split_feature=1 2 2 3 3 3 3
split_gain=1295.92 617.471 599.294 231.674 227.71 218.504 218.315
threshold=1.0000000180025095e-35 1.0000000180025095e-35 1.0000000180025095e-35 21.828643345000007 25.987833065000004 32.357110245000008 29.602869560000006
decision_type=2 2 2 2 2 2 2
left_child=1 6 4 -3 -2 -4 -1
right_child=2 3 5 -5 -6 -7 -8
leaf_value=-0.012976198153145883 -0.0044980929544311066 -0.0068033959960909279 0.0068531507466638303 0.0024364025725907082 0.0037600059438000714 0.015475403107089234 -0.0048782900328651685
leaf_weight=20011 14801 9352 23696 24703 19144 10651 14251
leaf_count=20011 14801 9352 23696 24703 19144 10651 14251
internal_value=0 -0.00486899 0.00487077 -0.000101044 0.000159223 0.0095271 -0.00960806
internal_weight=0 68317 68292 34055 33945 34347 34262
internal_count=136609 68317 68292 34055 33945 34347 34262
is_linear=0
shrinkage=0.05


Tree=55
num_leaves=8
num_cat=0
split_feature=0 0 1 0 0 2 2
split_gain=3037.34 1211.99 558.502 474.551 330.741 279.803 73.8611
threshold=711.22394750000012 313.25886925000003 1.0000000180025095e-35 946.77769125000009 152.59086460000003 1.0000000180025095e-35 1.0000000180025095e-35
decision_type=2 2 2 2 2 2 2
left_child=1 4 -3 5 -1 -2 -5
right_child=3 2 -4 6 -6 -7 -8
leaf_value=-0.021695056340693755 0.0039836349431706863 -0.0057272367143198387 0.0038574672899570669 0.017157224095592095 -0.010006598278653914 0.012864203410772674 0.026740443864499027
leaf_weight=8070 17782 30438 30356 4106 24210 17698 3949
leaf_count=8070 17782 30438 30356 4106 24210 17698 3949
internal_value=0 -0.00509897 -0.000941356 0.0109011 -0.012929 0.00841353 0.0218568
internal_weight=0 93074 60794 43535 32280 35480 8055
internal_count=136609 93074 60794 43535 32280 35480 8055
is_linear=0
shrinkage=0.05


Tree=56
num_leaves=8
num_cat=0
split_feature=0 0 2 0 0 2 2
split_gain=2762.18 1013.63 494.051 481.727 299.24 279.071 86.4798
threshold=418.87436825000003 792.49507495000012 1.0000000180025095e-35 170.56629735000004 950.25352845000009 1.0000000180025095e-35 1.0000000180025095e-35
decision_type=2 2 2 2 2 2 2
left_child=3 2 -2 6 -3 -5 -1
right_child=1 4 -4 5 -6 -7 -8
leaf_value=-0.023423439045685442 -0.0033580761255419915 0.0097565069031846901 0.0059495512350516491 -0.01126486614773025 0.021208838629302621 -0.0026563120293123747 -0.014455075895353893
leaf_weight=5362 28453 23643 28575 18692 7518 18968 5398
leaf_count=5362 28453 23643 28575 18692 7518 18968 5398
internal_value=0 0.00526819 0.0013057 -0.00959508 0.0125198 -0.00692914 -0.0189251
internal_weight=0 88189 57028 48420 31161 37660 10760
internal_count=136609 88189 57028 48420 31161 37660 10760
is_linear=0
shrinkage=0.05


Tree=57
num_leaves=8
num_cat=0
split_feature=0 0 0 1 1 1 1
split_gain=2510.07 858.327 485.842 485.795 304.114 220.773 104.959
threshold=651.57730425000011 270.37035235000008 928.65370170000017 1.0000000180025095e-35 1.0000000180025095e-35 1.0000000180025095e-35 1.0000000180025095e-35
decision_type=2 2 2 2 2 2 2
left_child=1 5 4 -3 -2 -1 -4
right_child=2 3 6 -5 -6 -7 -8
leaf_value=-0.017562973141522002 0.0018480670215023358 -0.0065685867269786001 0.013146631451312396 0.0025750706380144018 0.010363424573754819 -0.008316248719273377 0.023035431378146932
leaf_weight=12952 20878 29064 5423 29040 21063 12872 5317
leaf_count=12952 20878 29064 5423 29040 21063 12872 5317
internal_value=0 -0.00536965 0.00855455 -0.00199866 0.0061246 -0.0129542 0.0180431
internal_weight=0 83928 52681 58104 41941 25824 10740
internal_count=136609 83928 52681 58104 41941 25824 10740
is_linear=0
shrinkage=0.05


Tree=58
num_leaves=8
num_cat=0
split_feature=0 0 2 0 0 2 2
split_gain=2295.72 923.733 455.853 350.192 261.024 242.766 64.0593
threshold=380.79323330000005 777.74056350000012 1.0000000180025095e-35 156.21145250000004 950.25352845000009 1.0000000180025095e-35 1.0000000180025095e-35
decision_type=2 2 2 2 2 2 2
left_child=3 2 -2 6 -3 -5 -1
right_child=1 4 -4 5 -6 -7 -8
leaf_value=-0.022991017856167237 -0.003653211267366013 0.0086582045359222797 0.0050060375874711798 -0.01161769984213783 0.019246014351051575 -0.0031542735960706546 -0.014360075519762417
leaf_weight=4278 30309 25795 30485 16832 7518 17062 4330
leaf_count=4278 30309 25795 30485 16832 7518 17062 4330
internal_value=0 0.00435596 0.000688953 -0.0096448 0.0110479 -0.00735738 -0.0186506
internal_weight=0 94107 60794 42502 33313 33894 8608
internal_count=136609 94107 60794 42502 33313 33894 8608
is_linear=0
shrinkage=0.05


Tree=59
num_leaves=8
num_cat=0
split_feature=1 2 2 3 3 3 3
split_gain=1005.19 462.599 448.626 211.538 211.32 207.059 202.242
threshold=1.0000000180025095e-35 1.0000000180025095e-35 1.0000000180025095e-35 31.173791795000003 21.542411245000004 24.198348415000002 23.710726085000005
decision_type=2 2 2 2 2 2 2
left_child=1 6 4 -3 -2 -4 -1
right_child=2 3 5 -5 -6 -7 -8
leaf_value=-0.013673387275846627 -0.0064561632011998415 -0.0030540127317637725 0.0031788660979293164 0.0052068762802235076 0.0025467439614222948 0.011250878653857476 -0.0055967832286035937
leaf_weight=11849 8798 22130 12478 11925 25147 21869 22413
leaf_count=11849 8798 22130 12478 11925 25147 21869 22413
internal_value=0 -0.00428819 0.00428976 -0.000161273 0.000213274 0.00831847 -0.00839011
internal_weight=0 68317 68292 34055 33945 34347 34262
internal_count=136609 68317 68292 34055 33945 34347 34262
is_linear=0
shrinkage=0.05


Tree=60
num_leaves=8
num_cat=0
split_feature=0 0 0 2 3 2 0
split_gain=2086.9 575.891 532.29 330.329 286.306 137.948 96.6726
threshold=532.40678940000009 871.03671135000002 196.19708225000002 1.0000000180025095e-35 28.735525035000006 1.0000000180025095e-35 138.51456120000003
decision_type=2 2 2 2 2 2 2
left_child=2 3 6 -2 -4 -3 -1
right_child=1 5 4 -5 -6 -7 -8
leaf_value=-0.019791872618860007 -0.00080395076974823499 0.0091010400062437255 -0.007419256264112585 0.0071939108893995856 0.00010101725237957049 0.017549348561411059 -0.011488789260296256
leaf_weight=5918 25871 9715 28046 25770 23064 9617 8608
leaf_count=5918 25871 9715 28046 25770 23064 9617 8608
internal_value=0 0.00594297 -0.00642621 0.00318719 -0.00402567 0.0133041 -0.0148721
internal_weight=0 70973 65636 51641 51110 19332 14526
internal_count=136609 70973 65636 51641 51110 19332 14526
is_linear=0
shrinkage=0.05


Tree=61
num_leaves=8
num_cat=0
split_feature=0 0 1 0 0 1 3
split_gain=1903.43 793.635 402.33 264.037 235.961 209.202 51.8394
threshold=366.6430615000001 763.52947680000011 1.0000000180025095e-35 152.59086460000003 950.25352845000009 1.0000000180025095e-35 22.624112210000003
decision_type=2 2 2 2 2 2 2
left_child=3 2 -2 6 -3 -5 -1
right_child=1 4 -4 5 -6 -7 -8
leaf_value=-0.023258310646165212 -0.0037103152691615247 0.0076497410934084371 0.0044246878894678319 -0.011096013652682235 0.017628511826773854 -0.0030454353875127189 -0.014548695334439206
leaf_weight=2460 30424 27947 30370 16230 7518 16050 5610
leaf_count=2460 30424 27947 30370 16230 7518 16050 5610
internal_value=0 0.0038212 0.000353576 -0.0091158 0.0097653 -0.00709328 -0.0172049
internal_weight=0 96259 60794 40350 35465 32280 8070
internal_count=136609 96259 60794 40350 35465 32280 8070
is_linear=0
shrinkage=0.05


Tree=62
num_leaves=8
num_cat=0
split_feature=0 0 2 0 1 2 1
split_gain=1727.58 546.198 387.596 375.512 269.943 134.716 96.6746
threshold=616.44265860000007 231.45469295000001 1.0000000180025095e-35 917.83551675000012 1.0000000180025095e-35 1.0000000180025095e-35 1.0000000180025095e-35
decision_type=2 2 2 2 2 2 2
left_child=1 5 -3 4 -2 -1 -5
right_child=3 2 -4 6 -6 -7 -8
leaf_value=-0.016136913814669342 0.00059543354721312608 -0.006480802722596231 0.0016490754098219236 0.0098779383217959035 0.0082801971673606405 -0.007909425667595147 0.018726803681122988
leaf_weight=9873 22785 29242 29400 6214 22925 10033 6137
leaf_count=9873 22785 29242 29400 6214 22925 10033 6137
internal_value=0 -0.00483419 -0.00240493 0.00653991 0.00444963 -0.0119904 0.0142754
internal_weight=0 78548 58642 58061 45710 19906 12351
internal_count=136609 78548 58642 58061 45710 19906 12351
is_linear=0
shrinkage=0.05


Tree=63
num_leaves=8
num_cat=0
split_feature=0 0 1 1 2 2 0
split_gain=1580.18 626.093 338.591 247.184 212.54 127.783 127.706
threshold=384.30873735000006 763.52947680000011 1.0000000180025095e-35 1.0000000180025095e-35 1.0000000180025095e-35 1.0000000180025095e-35 156.21145250000004
decision_type=2 2 2 2 2 2 2
left_child=3 2 -2 6 -3 -5 -1
right_child=1 4 -4 5 -6 -7 -8
leaf_value=-0.019412693259625444 -0.003363752469915516 0.005038148659998438 0.0042698807377985377 -0.0080358589240274777 0.012779927317393847 -0.00030822385148849711 -0.0097843601599166274
leaf_weight=4298 29062 17856 29042 10553 17609 10849 17340
leaf_count=4298 29062 17856 29042 10553 17609 10849 17340
internal_value=0 0.00364714 0.000451754 -0.00792885 0.0088822 -0.0041187 -0.0116973
internal_weight=0 93569 58104 43040 35465 21402 21638
internal_count=136609 93569 58104 43040 35465 21402 21638
is_linear=0
shrinkage=0.05


Tree=64
num_leaves=8
num_cat=0
split_feature=0 0 3 3 0 0 1
split_gain=1435.11 581.136 338.884 263.881 177.242 159.553 85.8159
threshold=711.22394750000012 313.25886925000003 22.923357540000001 30.862396975000003 138.51456120000003 950.25352845000009 1.0000000180025095e-35
decision_type=2 2 2 2 2 2 2
left_child=1 4 -3 5 -1 -2 -5
right_child=3 2 -4 6 -6 -7 -8
leaf_value=-0.016746352770710082 0.0027972918251475852 -0.0061304661270061489 0.0019056946187566903 0.0089375448098175259 -0.0071711738569918207 0.012886707207003426 0.016267761436329013
leaf_weight=5918 22829 19152 41642 7982 26362 4730 7994
leaf_count=5918 22829 19152 41642 7982 26362 4730 7994
internal_value=0 -0.00350493 -0.000625975 0.00749315 -0.00892686 0.00452916 0.0126058
internal_weight=0 93074 60794 43535 32280 27559 15976
internal_count=136609 93074 60794 43535 32280 27559 15976
is_linear=0
shrinkage=0.05


Tree=65
num_leaves=8
num_cat=0
split_feature=0 2 0 1 1 0 3
split_gain=1309.68 455.157 309.265 241.931 237.81 209.056 66.8942
threshold=493.38001445000003 1.0000000180025095e-35 177.92209805000002 1.0000000180025095e-35 1.0000000180025095e-35 853.36671820000004 22.123103240000003
decision_type=2 2 2 2 2 2 2
left_child=2 4 6 -4 -2 -3 -1
right_child=1 5 3 -5 -6 -7 -8
leaf_value=-0.018807697677165728 -0.0034485013495495357 0.0058383904772874281 -0.0073069861026448029 -0.00019876449042187895 0.004405203895142408 0.014013994156065065 -0.010442048993584321
leaf_weight=3324 19277 27394 24030 23852 19277 10943 8512
leaf_count=3324 19277 27394 24030 23852 19277 10943 8512
internal_value=0 0.00431445 -0.00555516 -0.00376613 0.000478357 0.00817221 -0.0127921
internal_weight=0 76891 59718 47882 38554 38337 11836
internal_count=136609 76891 59718 47882 38554 38337 11836
is_linear=0
shrinkage=0.05


Tree=66
num_leaves=8
num_cat=0
split_feature=0 0 3 3 2 1 1
split_gain=1205.35 505.441 321.893 217.483 187.413 156.741 56.4728
threshold=731.59589285000004 327.37011825000008 33.535441530000007 21.927215325000002 1.0000000180025095e-35 1.0000000180025095e-35 1.0000000180025095e-35
decision_type=2 2 2 2 2 2 2
left_child=1 4 -3 6 -1 -5 -2
right_child=3 2 -4 5 -6 -7 -8
leaf_value=-0.011603079135728094 -0.0023240946884684915 -0.0024524073939388383 0.0058100316628755845 0.0058701843955698638 -0.0042251729868776405 0.013201567331022013 0.0047964654130971326
leaf_weight=17122 5444 46024 15846 14607 17310 14557 5699
leaf_count=17122 5444 46024 15846 14607 17310 14557 5699
internal_value=0 -0.00303851 -0.000336221 0.00725955 -0.0078941 0.00952975 0.00131771
internal_weight=0 96302 61870 40307 34432 29164 11143
internal_count=136609 96302 61870 40307 34432 29164 11143
is_linear=0
shrinkage=0.05


Tree=67
num_leaves=8
num_cat=0
split_feature=1 3 3 2 2 2 2
split_gain=673.268 335.702 328.879 240.885 226.297 92.6212 85.0632
threshold=1.0000000180025095e-35 32.357110245000008 21.927215325000002 1.0000000180025095e-35 1.0000000180025095e-35 1.0000000180025095e-35 1.0000000180025095e-35
decision_type=2 2 2 2 2 2 2
left_child=2 4 6 -4 -2 -3 -1
right_child=1 5 3 -5 -6 -7 -8
leaf_value=-0.012498828270439317 -0.0023012304767374824 0.0054055091609878092 -0.0048343813862419625 0.0021456342043738204 0.0046199885751017807 0.012039347837351584 -0.0057849118807621787
leaf_weight=9387 23544 10401 24875 24568 23696 10651 9487
leaf_count=9387 23544 10401 24875 24568 23696 10651 9487
internal_value=0 0.00351076 -0.00350949 -0.00136606 0.00117053 0.00876202 -0.00912433
internal_weight=0 68292 68317 49443 47240 21052 18874
internal_count=136609 68292 68317 49443 47240 21052 18874
is_linear=0
shrinkage=0.05


Tree=68
num_leaves=8
num_cat=0
split_feature=0 0 2 0 3 3 3
split_gain=1087.8 436.073 319.26 216.798 177.525 109.02 39.2285
threshold=711.22394750000012 245.68920535000004 1.0000000180025095e-35 950.25352845000009 30.767833205000006 26.380086640000005 21.051758800000005
decision_type=2 2 2 2 2 2 2
left_child=1 5 -3 4 -2 -1 -5
right_child=3 2 -4 6 -6 -7 -8
leaf_value=-0.013092668890269388 0.002217852415134084 -0.0045086043142711493 0.0021963212433943691 0.0078871133261078329 0.0094860734492502805 -0.0060239984781715362 0.016298943065198367
leaf_weight=9886 22669 35380 35636 1835 13348 12172 5683
leaf_count=9886 22669 35380 35636 1835 13348 12172 5683
internal_value=0 -0.00305148 -0.00114406 0.00652374 0.00491157 -0.00919227 0.0142464
internal_weight=0 93074 71016 43535 36017 22058 7518
internal_count=136609 93074 71016 43535 36017 22058 7518
is_linear=0
shrinkage=0.05


Tree=69
num_leaves=8
num_cat=0
split_feature=0 0 3 1 0 3 0
split_gain=999.151 440.909 328.172 179.241 114.179 97.8174 84.8929
threshold=366.6430615000001 853.36671820000004 22.923357540000001 1.0000000180025095e-35 968.02741060000005 21.243231465000004 138.51456120000003
decision_type=2 2 2 2 2 2 2
left_child=3 2 -2 6 -3 -5 -1
right_child=1 4 -4 5 -6 -7 -8
leaf_value=-0.017685588489389819 -0.0039776557313427165 0.0070724832171164933 0.0031793723867288497 -0.009391908054487667 0.015771779133446073 -0.00127008881985682 -0.0085719254236993076
leaf_weight=2999 23378 17184 50864 4906 4833 15168 17277
leaf_count=2999 23378 17184 50864 4906 4833 15168 17277
internal_value=0 0.00276851 0.00092569 -0.00660453 0.0089824 -0.00325521 -0.00992032
internal_weight=0 96259 74242 40350 22017 20074 20276
internal_count=136609 96259 74242 40350 22017 20074 20276
is_linear=0
shrinkage=0.05


Tree=70
num_leaves=8
num_cat=0
split_feature=0 2 1 1 0 1 2
split_gain=914.37 310.808 283.193 160.572 148.263 140.257 133.569
threshold=566.92426300000011 1.0000000180025095e-35 1.0000000180025095e-35 1.0000000180025095e-35 928.65370170000017 1.0000000180025095e-35 1.0000000180025095e-35
decision_type=2 2 2 2 2 2 2
left_child=1 5 6 -3 -4 -1 -2
right_child=2 3 4 -5 -6 -7 -8
leaf_value=-0.010385091057363989 -0.0022065437135563282 -0.0040094391666525937 0.0060609533312714773 0.0026974000337212883 0.015181409855876592 -0.0040830762771982892 0.0041785773242427708
leaf_weight=17786 16476 17769 27514 17928 5317 17533 16286
leaf_count=17786 16476 17769 27514 17928 5317 17533 16286
internal_value=0 -0.00393135 0.00425636 -0.000641092 0.00753823 -0.00725676 0.000967517
internal_weight=0 71016 65593 35697 32831 35319 32762
internal_count=136609 71016 65593 35697 32831 35319 32762
is_linear=0
shrinkage=0.05


Tree=71
num_leaves=8
num_cat=0
split_feature=0 3 2 3 0 0 2
split_gain=846.052 416.119 274.593 169.483 104.456 92.5058 68.8918
threshold=366.6430615000001 33.535441530000007 1.0000000180025095e-35 28.642769725000004 849.78028500000016 142.14981795000003 1.0000000180025095e-35
decision_type=2 2 2 2 2 2 2
left_child=3 2 -2 5 -3 -1 -5
right_child=1 4 -4 6 -6 -7 -8
leaf_value=-0.016463134274610332 -0.0024830726956339877 0.0063123181474273793 0.0037164731233845227 -0.0056162554029389779 0.013930032315304632 -0.0076264186529736286 0.00049482589228427279
leaf_weight=3531 35798 18909 35646 9180 5906 18372 9267
leaf_count=3531 35798 18909 35646 9180 5906 18372 9267
internal_value=0 0.00254759 0.00061011 -0.0060775 0.00812559 -0.00905134 -0.00254637
internal_weight=0 96259 71444 40350 24815 21903 18447
internal_count=136609 96259 71444 40350 24815 21903 18447
is_linear=0
shrinkage=0.05


Tree=72
num_leaves=8
num_cat=0
split_feature=0 3 0 0 3 0 2
split_gain=796.404 374.361 231.181 157.976 140.349 118.224 26.3228
threshold=731.59589285000004 24.099717305000002 203.58837990000004 968.02741060000005 28.358559625000002 280.7201685500001 1.0000000180025095e-35
decision_type=2 2 2 2 2 2 2
left_child=1 5 -3 4 -2 -1 -5
right_child=3 2 -4 6 -6 -7 -8
leaf_value=-0.011243367927939807 0.0017732561389776883 -0.0070680395432250048 0.0012346557090663433 0.010779860981943015 0.0080733207853138367 -0.004778961608883219 0.018167304323949331
leaf_weight=9858 18739 10018 51390 2478 16735 25036 2355
leaf_count=9858 18739 10018 51390 2478 16735 25036 2355
internal_value=0 -0.00246985 -0.000119879 0.00590094 0.00474541 -0.00660537 0.0143811
internal_weight=0 96302 61408 40307 35474 34894 4833
internal_count=136609 96302 61408 40307 35474 34894 4833
is_linear=0
shrinkage=0.05


Tree=73
num_leaves=8
num_cat=0
split_feature=0 3 2 3 0 0 2
split_gain=718.76 350.485 249.596 149.744 108.049 95.9472 43.7979
threshold=731.59589285000004 33.633913110000009 1.0000000180025095e-35 21.927215325000002 968.02741060000005 196.19708225000002 1.0000000180025095e-35
decision_type=2 2 2 2 2 2 2
left_child=1 2 -1 6 -5 -3 -2
right_child=3 5 -4 4 -6 -7 -8
leaf_value=-0.0070750372710309947 -0.0024604663911743934 -0.0044986600811335736 -0.0011760270972552738 0.0063733940813469857 0.015788440233591244 0.0041430058700509002 0.0038086541774613927
leaf_weight=35698 5569 3799 36030 25707 3457 20775 5574
leaf_count=35698 5569 3799 36030 25707 3457 20775 5574
internal_value=0 -0.00234636 -0.00411191 0.00560591 0.00748967 0.00280699 0.000675531
internal_weight=0 96302 71728 40307 29164 24574 11143
internal_count=136609 96302 71728 40307 29164 24574 11143
is_linear=0
shrinkage=0.05


Tree=74
num_leaves=8
num_cat=0
split_feature=0 1 0 2 2 1 2
split_gain=672.043 364.681 165.226 161.503 153.077 143.734 19.3542
threshold=422.5444313000001 1.0000000180025095e-35 138.51456120000003 1.0000000180025095e-35 1.0000000180025095e-35 1.0000000180025095e-35 1.0000000180025095e-35
decision_type=2 2 2 2 2 2 2
left_child=2 3 6 -2 -3 -4 -1
right_child=1 4 5 -5 -6 -7 -8
leaf_value=-0.015365543597032811 -0.0036375601018107558 0.0028828869117773215 -0.0064949385442517084 0.0024398613118576584 0.00878631037794682 -0.00071604871621615447 -0.0096425195539414088
leaf_weight=2980 21954 21932 21592 21772 21993 21448 2938
leaf_count=2980 21954 21932 21592 21772 21993 21448 2938
internal_value=0 0.00262097 -0.00469238 -0.000611504 0.00583876 -0.0036152 -0.0125254
internal_weight=0 87651 48958 43726 43925 43040 5918
internal_count=136609 87651 48958 43726 43925 43040 5918
is_linear=0
shrinkage=0.05


Tree=75
num_leaves=8
num_cat=0
split_feature=1 3 3 2 2 2 2
split_gain=480.604 238.917 231.381 156.749 122.277 82.082 56.3377
threshold=1.0000000180025095e-35 21.542411245000004 30.673807590000003 1.0000000180025095e-35 1.0000000180025095e-35 1.0000000180025095e-35 1.0000000180025095e-35
decision_type=2 2 2 2 2 2 2
left_child=2 6 4 -3 -1 -4 -2
right_child=1 3 5 -5 -6 -7 -8
leaf_value=-0.0078652291098719705 -0.0048713826762867909 0.0019155523647491506 -0.0020000800896941384 0.007481749802323876 -0.0025312248056530203 0.0036915017576984719 0.00077080973847245453
leaf_weight=21498 8798 25147 12764 25448 21480 12575 8899
leaf_count=21498 8798 25147 12764 25448 21480 12575 8899
internal_value=0 0.00296621 -0.00296513 0.00471525 -0.0051994 0.000824502 -0.00203424
internal_weight=0 68292 68317 50595 42978 25339 17697
internal_count=136609 68292 68317 50595 42978 25339 17697
is_linear=0
shrinkage=0.05


Tree=76
num_leaves=8
num_cat=0
split_feature=0 3 2 3 0 0 0
split_gain=618.446 264.405 199.567 177.45 130.263 62.7993 40.2305
threshold=655.06024675000015 21.148554510000004 1.0000000180025095e-35 34.211257780000004 935.88427960000013 214.14734100000001 943.18876185000011
decision_type=2 2 2 2 2 2 2
left_child=1 5 -3 4 -2 -1 -5
right_child=3 2 -4 6 -6 -7 -8
leaf_value=-0.013118150049940587 0.0013174073027523315 -0.0038628894975426733 0.0017270169193644089 0.0082975978337309457 0.0086623200891075541 -0.0061952513890746914 0.016045268899792207
leaf_weight=4087 32618 31781 32087 10109 7407 16511 2009
leaf_count=4087 32618 31781 32087 10109 7407 16511 2009
internal_value=0 -0.00264325 -0.00105455 0.00428175 0.00267674 -0.00756916 0.00958267
internal_weight=0 84466 63868 52143 40025 20598 12118
internal_count=136609 84466 63868 52143 40025 20598 12118
is_linear=0
shrinkage=0.05


Tree=77
num_leaves=8
num_cat=0
split_feature=1 3 3 2 2 2 2
split_gain=433.473 204.928 203.429 131.242 125.313 56.1805 44.7476
threshold=1.0000000180025095e-35 32.357110245000008 21.927215325000002 1.0000000180025095e-35 1.0000000180025095e-35 1.0000000180025095e-35 1.0000000180025095e-35
decision_type=2 2 2 2 2 2 2
left_child=2 4 6 -4 -2 -3 -1
right_child=1 5 3 -5 -6 -7 -8
leaf_value=-0.0096794816725012112 -0.0015949353302111002 0.0043057460362520327 -0.0036902841250333763 0.0014618643403406192 0.0035554707442249514 0.0094723293786560595 -0.0048098274891053691
leaf_weight=9387 23544 10401 24875 24568 23696 10651 9487
leaf_count=9387 23544 10401 24875 24568 23696 10651 9487
internal_value=0 0.00281701 -0.00281599 -0.00113022 0.000988564 0.00691988 -0.00723195
internal_weight=0 68292 68317 49443 47240 21052 18874
internal_count=136609 68292 68317 49443 47240 21052 18874
is_linear=0
shrinkage=0.05


Tree=78
num_leaves=8
num_cat=0
split_feature=0 1 0 3 0 3 3
split_gain=575.712 285.235 147.857 146.776 119.188 99.5519 19.4914
threshold=356.12694225000001 1.0000000180025095e-35 871.03671135000002 30.181305800000001 138.51456120000003 33.828535445000007 21.148554510000004
decision_type=2 2 2 2 2 2 2
left_child=4 3 -3 -2 6 -6 -1
right_child=1 2 -4 -5 5 -7 -8
leaf_value=-0.016747565752452568 -0.0028515132244451816 0.0033751383884114321 0.010274036803966836 0.002765875537860828 -0.0055761859531007762 0.00077408684651724617 -0.010059621234449666
leaf_weight=1442 29813 39318 9678 19064 24577 8241 4476
leaf_count=1442 29813 39318 9678 19064 24577 8241 4476
internal_value=0 0.00204201 0.00473794 -0.000660499 -0.00515946 -0.00398157 -0.0116905
internal_weight=0 97873 48996 48877 38736 32818 5918
internal_count=136609 97873 48996 48877 38736 32818 5918
is_linear=0
shrinkage=0.05


Tree=79
num_leaves=8
num_cat=0
split_feature=0 1 0 0 0 2 2
split_gain=529.675 268.777 129.303 121.52 116.418 88.8422 17.8749
threshold=741.98744015000011 1.0000000180025095e-35 214.14734100000001 170.56629735000004 968.02741060000005 1.0000000180025095e-35 1.0000000180025095e-35
decision_type=2 2 2 2 2 2 2
left_child=1 2 -1 -3 5 -2 -6
right_child=4 3 -4 -5 6 -7 -8
leaf_value=-0.010142179102087447 0.0013672723990629616 -0.0064142175774000321 -0.0033884046703716803 0.0015462515300746545 0.0092439463817293507 0.0064896551880503812 0.015331904414669154
leaf_weight=8591 17010 5388 40474 43463 2478 16850 2355
leaf_count=8591 17010 5388 40474 43463 2478 16850 2355
internal_value=0 -0.00195716 -0.00457104 0.000668198 0.0049527 0.00391642 0.0122117
internal_weight=0 97916 49065 48851 38693 33860 4833
internal_count=136609 97916 49065 48851 38693 33860 4833
is_linear=0
shrinkage=0.05


Tree=80
num_leaves=8
num_cat=0
split_feature=3 1 2 2 2 1 1
split_gain=364.352 256.695 122.45 109.107 83.2082 43.0337 34.5507
threshold=34.211257780000004 1.0000000180025095e-35 1.0000000180025095e-35 1.0000000180025095e-35 1.0000000180025095e-35 1.0000000180025095e-35 1.0000000180025095e-35
decision_type=2 2 2 2 2 2 2
left_child=1 3 -3 -1 5 -2 -6
right_child=4 2 -4 -5 6 -7 -8
leaf_value=-0.0061662614699999089 -0.00045699041534166829 -0.0013683142922216 0.0034658870546992247 -0.0016080381772942875 0.0048857427282954927 0.0047611507297613698 0.0095492324835566664
leaf_weight=26288 7974 26114 26283 26225 7830 7831 8064
leaf_count=26288 7974 26114 26283 26225 7830 7831 8064
internal_value=0 -0.00141941 0.00105659 -0.00388992 0.00469756 0.00212854 0.00725204
internal_weight=0 104910 52397 52513 31699 15805 15894
internal_count=136609 104910 52397 52513 31699 15805 15894
is_linear=0
shrinkage=0.05


Tree=81
num_leaves=8
num_cat=0
split_feature=0 0 1 0 1 0 0
split_gain=487.418 195.557 158.41 139.38 96.5774 45.7949 22.3829
threshold=479.50196985000008 896.20853675000012 1.0000000180025095e-35 149.17071250000001 1.0000000180025095e-35 971.75860245000013 114.12388895000002
decision_type=2 2 2 2 2 2 2
left_child=3 2 -2 6 -5 -3 -1
right_child=1 5 -4 4 -6 -7 -8
leaf_value=-0.014150856648532646 -0.0011910015602595407 0.0058955242231920136 0.0038048307626548181 -0.0047337574015846795 -0.00034029881177907755 0.011962458746248584 -0.0081152976447170563
leaf_weight=2152 31609 11277 31861 25108 24926 4296 5380
leaf_count=2152 31609 11277 31861 25108 24926 4296 5380
internal_value=0 0.00254878 0.00131684 -0.00349968 -0.00254504 0.00756949 -0.00984057
internal_weight=0 79043 63470 57566 50034 15573 7532
internal_count=136609 79043 63470 57566 50034 15573 7532
is_linear=0
shrinkage=0.05


Tree=82
num_leaves=8
num_cat=0
split_feature=0 3 0 3 0 0 0
split_gain=443.643 260.691 175.099 98.6821 74.2855 47.9515 20.6934
threshold=366.6430615000001 20.567371845 896.20853675000012 19.982525420000005 128.18880175000001 864.18404965000002 138.51456120000003
decision_type=2 2 2 2 2 2 2
left_child=3 5 -3 6 -5 -2 -1
right_child=1 2 -4 4 -6 -7 -8
leaf_value=-0.015600067411601241 -0.0042611798673595803 0.0021758226119652654 0.0087532395338431046 -0.010134084546887077 -0.0023712060458782581 0.0015067648360471125 -0.0083763270537898313
leaf_weight=1167 16798 62813 12061 3446 29127 4587 6610
leaf_count=1167 16798 62813 12061 3446 29127 4587 6610
internal_value=0 0.0018448 0.00323539 -0.00440092 -0.00319261 -0.00302397 -0.00946124
internal_weight=0 96259 74874 40350 32573 21385 7777
internal_count=136609 96259 74874 40350 32573 21385 7777
is_linear=0
shrinkage=0.05


Tree=83
num_leaves=8
num_cat=0
split_feature=0 2 3 3 0 3 0
split_gain=407.404 187.696 156.422 99.6034 92.5188 85.2047 43.573
threshold=598.35581285000012 1.0000000180025095e-35 23.417454070000002 31.671109025000003 910.8450095500001 25.987833065000004 950.25352845000009
decision_type=2 2 2 2 2 2 2
left_child=1 5 6 -3 -4 -1 -2
right_child=2 3 4 -5 -6 -7 -8
leaf_value=-0.0076492108477550589 -0.0013852016972692414 -0.0017739559134492386 0.0035866031931451495 0.0036497410451248897 0.009371794064214992 -0.0028570495046564685 0.005588708748150842
leaf_weight=16428 17881 25438 31453 12686 8857 21306 2560
leaf_count=16428 17881 25438 31453 12686 8857 21306 2560
internal_value=0 -0.00244354 0.00305116 3.08374e-05 0.00485784 -0.00494345 -0.000511684
internal_weight=0 75858 60751 38124 40310 37734 20441
internal_count=136609 75858 60751 38124 40310 37734 20441
is_linear=0
shrinkage=0.05


Tree=84
num_leaves=8
num_cat=0
split_feature=0 3 2 3 2 2 0
split_gain=378.703 223.469 149.393 84.0749 60.3646 45.1348 24.7272
threshold=356.12694225000001 20.567371845 1.0000000180025095e-35 33.926799760000002 1.0000000180025095e-35 1.0000000180025095e-35 128.18880175000001
decision_type=2 2 2 2 2 2 2
left_child=3 5 -3 4 -1 -2 -5
right_child=1 2 -4 6 -6 -7 -8
leaf_value=-0.0078124854996281653 -0.0050953535021047497 0.00072032980913291911 0.0051501024815793052 -0.0073779771247179174 -0.0032612726822493486 -0.00053903714362274827 0.00076487240182676044
leaf_weight=14469 10858 38106 38026 1046 14677 10883 8544
leaf_count=14469 10858 38106 38026 1046 14677 10883 8544
internal_value=0 0.00165617 0.00293291 -0.00418457 -0.00552073 -0.00281464 -0.000123622
internal_weight=0 97873 76132 38736 29146 21741 9590
internal_count=136609 97873 76132 38736 29146 21741 9590
is_linear=0
shrinkage=0.05


Tree=85
num_leaves=8
num_cat=0
split_feature=0 3 1 3 0 0 2
split_gain=358.674 206.938 147.859 82.4141 61.9652 49.9183 22.1137
threshold=748.91633320000017 34.211257780000004 1.0000000180025095e-35 34.492492875000003 968.02741060000005 196.19708225000002 1.0000000180025095e-35
decision_type=2 2 2 2 2 2 2
left_child=1 2 -1 4 -2 -3 -5
right_child=3 5 -4 6 -6 -7 -8
leaf_value=-0.0050261655489206259 0.0020247400675430338 -0.0029428921644161317 -0.00061710137357662536 0.0059740043714995835 0.0088885767306722714 0.0035688693417015092 0.011131501110658158
leaf_weight=38253 25525 3467 37809 4167 3774 19463 4151
leaf_count=38253 25525 3467 37809 4167 3774 19463 4151
internal_value=0 -0.00157934 -0.00283452 0.00415608 0.00290901 0.00258425 0.00854831
internal_weight=0 98992 76062 37617 29299 22930 8318
internal_count=136609 98992 76062 37617 29299 22930 8318
is_linear=0
shrinkage=0.05


Tree=86
num_leaves=8
num_cat=0
split_feature=0 3 0 0 3 2 3
split_gain=326.526 200.01 127.616 75.6912 62.4205 51.0385 11.5772
threshold=341.33394515000003 21.927215325000002 874.53972120000014 128.18880175000001 21.344868990000002 1.0000000180025095e-35 28.543447520000004
decision_type=2 2 2 2 2 2 2
left_child=3 5 -3 6 -5 -2 -1
right_child=1 2 -4 4 -6 -7 -8
leaf_value=-0.012634340843749096 -0.0042952723083182921 0.0018525953578391076 0.0072338955319156163 -0.0070290316894948916 -0.0019450724535408977 -1.4003605259126489e-07 -0.007421509133353172
leaf_weight=2351 13767 58802 13557 8040 24240 13899 1953
leaf_count=2351 13767 58802 13557 8040 24240 13899 1953
internal_value=0 0.00147836 0.00286087 -0.00404199 -0.00321143 -0.0021375 -0.0102701
internal_weight=0 100025 72359 36584 32280 27666 4304
internal_count=136609 100025 72359 36584 32280 27666 4304
is_linear=0
shrinkage=0.05


Tree=87
num_leaves=8
num_cat=0
split_feature=0 3 2 3 0 2 0
split_gain=302.251 174.631 130.283 78.2893 57.6595 37.9307 19.3027
threshold=731.59589285000004 21.148554510000004 1.0000000180025095e-35 34.492492875000003 957.23841105000008 1.0000000180025095e-35 968.02741060000005
decision_type=2 2 2 2 2 2 2
left_child=1 5 -3 4 -2 -1 -5
right_child=3 2 -4 6 -6 -7 -8
leaf_value=-0.0072876787173539615 0.0015253831786906091 -0.0024362392089686867 0.0017943816174106394 0.0069128287530011798 0.0073756211405678618 -0.003270708754964153 0.014103922318977469
leaf_weight=11689 26368 36234 36558 7868 5012 11821 1059
leaf_count=11689 26368 36234 36558 7868 5012 11821 1059
internal_value=0 -0.00152156 -0.000311516 0.00363528 0.00245988 -0.00526803 0.00776664
internal_weight=0 96302 72792 40307 31380 23510 8927
internal_count=136609 96302 72792 40307 31380 23510 8927
is_linear=0
shrinkage=0.05


Tree=88
num_leaves=8
num_cat=0
split_feature=0 1 3 3 0 3 1
split_gain=283.915 199.033 100.483 86.688 65.1222 54.91 10.4061
threshold=327.37011825000008 1.0000000180025095e-35 24.295718200000007 35.486691110000002 128.18880175000001 33.926799760000002 1.0000000180025095e-35
decision_type=2 2 2 2 2 2 2
left_child=4 3 -3 -2 6 -6 -1
right_child=1 2 -4 -5 5 -7 -8
leaf_value=-0.012153665383271998 -0.0018455627279226655 0.00064207855987231987 0.0052325395018649546 0.003526274968459274 -0.0043344872363850441 0.00060007500261966668 -0.0072326424813094377
leaf_weight=2139 41939 18950 32140 9148 22619 7509 2165
leaf_count=2139 41939 18950 32140 9148 22619 7509 2165
internal_value=0 0.00132321 0.0035299 -0.000883618 -0.0039266 -0.00310462 -0.00967942
internal_weight=0 102177 51090 51087 34432 30128 4304
internal_count=136609 102177 51090 51087 34432 30128 4304
is_linear=0
shrinkage=0.05


Tree=89
num_leaves=8
num_cat=0
split_feature=0 1 1 3 3 3 0
split_gain=266.114 134.283 109.242 65.631 62.8982 62.1004 56.8405
threshold=532.40678940000009 1.0000000180025095e-35 1.0000000180025095e-35 29.990577650000002 24.295718200000007 31.477074810000005 185.40083835000004
decision_type=2 2 2 2 2 2 2
left_child=2 3 6 -2 -3 -4 -1
right_child=1 4 5 -5 -6 -7 -8
leaf_value=-0.0085373167950872006 -0.0018072066690330631 0.0015598223999176561 -0.0018317007875598827 0.0025820482563781266 0.0059162346573707744 0.002745480339144072 -0.003304090583291132
leaf_weight=6460 21302 13186 21504 14189 22296 11306 26366
leaf_count=6460 21302 13186 21504 14189 22296 11306 26366
internal_value=0 0.0021222 -0.00229477 -5.24082e-05 0.00429733 -0.000254432 -0.00433408
internal_weight=0 70973 65636 35491 35482 32810 32826
internal_count=136609 70973 65636 35491 35482 32810 32826
is_linear=0
shrinkage=0.05


Tree=90
num_leaves=8
num_cat=0
split_feature=0 3 1 0 1 1 3
split_gain=247.913 155.38 111.896 66.3489 56.3611 40.175 9.65072
threshold=748.91633320000017 34.211257780000004 1.0000000180025095e-35 968.02741060000005 1.0000000180025095e-35 1.0000000180025095e-35 17.195643365000006
decision_type=2 2 2 2 2 2 2
left_child=1 2 -1 4 -2 -3 -5
right_child=3 5 -4 6 -6 -7 -8
leaf_value=-0.0043072446499977128 0.00055951745446360958 0.00018704049243888009 -0.00047167112465791626 0.0016510234818261249 0.0047059124319916044 0.0043728851633933379 0.0096106704110684969
leaf_weight=38253 16264 11384 37809 417 16520 11546 4416
leaf_count=38253 16264 11384 37809 417 16520 11546 4416
internal_value=0 -0.00131303 -0.00240067 0.00345528 0.00264894 0.0022948 0.00892414
internal_weight=0 98992 76062 37617 32784 22930 4833
internal_count=136609 98992 76062 37617 32784 22930 4833
is_linear=0
shrinkage=0.05


Tree=91
num_leaves=8
num_cat=0
split_feature=0 2 3 3 2 3 0
split_gain=229.186 162.545 84.0007 77.718 59.6504 35.4612 27.7114
threshold=327.37011825000008 1.0000000180025095e-35 33.633913110000009 19.788593480000003 1.0000000180025095e-35 20.262888995000001 152.59086460000003
decision_type=2 2 2 2 2 2 2
left_child=4 3 -3 -2 6 -6 -1
right_child=1 2 -4 -5 5 -7 -8
leaf_value=-0.009252371532998814 -0.0048140633289279608 0.0019997494609903807 0.0066568753051639441 0.00014327473365104387 -0.00591156396388274 -0.00030808601988709821 -0.0045060340623169137
leaf_weight=4019 9777 38112 12980 41308 3552 13758 13103
leaf_count=4019 9777 38112 12980 41308 3552 13758 13103
internal_value=0 0.00118885 0.00318295 -0.000805533 -0.0035279 -0.00145805 -0.00562037
internal_weight=0 102177 51092 51085 34432 17310 17122
internal_count=136609 102177 51092 51085 34432 17310 17122
is_linear=0
shrinkage=0.05


Tree=92
num_leaves=8
num_cat=0
split_feature=2 3 1 1 3 3 1
split_gain=199.512 105.625 95.3239 79.8856 51.1418 42.6538 21.5869
threshold=1.0000000180025095e-35 20.362600855000004 1.0000000180025095e-35 1.0000000180025095e-35 34.021408210000011 19.788593480000003 1.0000000180025095e-35
decision_type=2 2 2 2 2 2 2
left_child=2 6 5 -3 -4 -1 -2
right_child=1 3 4 -5 -6 -7 -8
leaf_value=-0.0074205952925107095 -0.0037970468720854782 0.00099443267315208416 -0.0011237768280765541 0.004846623124165117 0.003425632438770445 -0.0029204703729863134 5.2435924068671763e-05
leaf_weight=6498 7271 26784 25826 27051 8119 27764 7296
leaf_count=6498 7271 26784 25826 27051 8119 27764 7296
internal_value=0 0.00190806 -0.00191353 0.00293011 -3.561e-05 -0.00377404 -0.00186907
internal_weight=0 68402 68207 53835 33945 34262 14567
internal_count=136609 68402 68207 53835 33945 34262 14567
is_linear=0
shrinkage=0.05


Tree=93
num_leaves=8
num_cat=0
split_feature=0 3 1 0 1 0 3
split_gain=217.433 134.864 96.4919 53.1974 40.9104 33.9453 8.56253
threshold=785.37218230000008 34.211257780000004 1.0000000180025095e-35 968.02741060000005 1.0000000180025095e-35 163.25499995000004 34.302389900000009
decision_type=2 2 2 2 2 2 2
left_child=1 2 -1 4 -2 -3 -5
right_child=3 5 -4 6 -6 -7 -8
leaf_value=-0.0038214227018773883 0.00078468451981609719 -0.0036072225661369808 -0.00035236115606229491 0.0072799268846563603 0.0046486376317123115 0.0027714730161089588 0.012299340718585254
leaf_weight=40297 13564 2305 39885 3731 13840 21885 1102
leaf_count=40297 13564 2305 39885 3731 13840 21885 1102
internal_value=0 -0.00110862 -0.00209582 0.00358925 0.00273617 0.0021636 0.00842559
internal_weight=0 104372 80182 32237 27404 24190 4833
internal_count=136609 104372 80182 32237 27404 24190 4833
is_linear=0
shrinkage=0.05


Tree=94
num_leaves=8
num_cat=0
split_feature=2 3 3 1 1 1 1
split_gain=180.157 93.2477 82.1067 70.0554 47.0963 32.1809 14.8232
threshold=1.0000000180025095e-35 19.373824575000004 26.380086640000005 1.0000000180025095e-35 1.0000000180025095e-35 1.0000000180025095e-35 1.0000000180025095e-35
decision_type=2 2 2 2 2 2 2
left_child=2 6 5 -3 -4 -1 -2
right_child=1 3 4 -5 -6 -7 -8
leaf_value=-0.0053336160045291334 -0.0040097877386270214 0.0008897547819066451 -0.0020112593969357404 0.0044079569343540934 0.0015386954272049373 -0.0021029652554674671 -0.00046593655134733293
leaf_weight=15511 5873 28182 18751 28417 18620 15325 5930
leaf_count=15511 5873 28182 18751 28417 18620 15325 5930
internal_value=0 0.00181315 -0.00181834 0.00265618 -0.000242507 -0.00372809 -0.0022294
internal_weight=0 68402 68207 56599 37371 30836 11803
internal_count=136609 68402 68207 56599 37371 30836 11803
is_linear=0
shrinkage=0.05


Tree=95
num_leaves=8
num_cat=0
split_feature=0 2 0 1 0 1 0
split_gain=202.16 118.3 78.3958 53.1944 48.504 40.6745 20.5964
threshold=479.50196985000008 1.0000000180025095e-35 166.88399605000004 1.0000000180025095e-35 964.45754120000015 1.0000000180025095e-35 114.12388895000002
decision_type=2 2 2 2 2 2 2
left_child=2 3 6 -2 -3 -4 -1
right_child=1 4 5 -5 -6 -7 -8
leaf_value=-0.010570902868886435 -0.0021195028457470003 0.0031122273636314214 -0.0028551735210706939 0.0015446685783250969 0.010149150637879419 7.5926014751971594e-05 -0.0050651686303756866
leaf_weight=2152 19817 36801 23782 19802 2623 23562 8070
leaf_count=2152 19817 36801 23782 19802 2623 23562 8070
internal_value=0 0.00164145 -0.00225385 -0.000288114 0.00358054 -0.00139645 -0.00622473
internal_weight=0 79043 57566 39619 39424 47344 10222
internal_count=136609 79043 57566 39619 39424 47344 10222
is_linear=0
shrinkage=0.05


Tree=96
num_leaves=8
num_cat=0
split_feature=0 3 2 0 2 0 3
split_gain=185.83 126.508 97.7638 40.4817 32.675 25.8229 6.75408
threshold=814.04912100000013 19.982525420000005 1.0000000180025095e-35 971.75860245000013 1.0000000180025095e-35 231.45469295000001 19.583831640000003
decision_type=2 2 2 2 2 2 2
left_child=1 5 -3 4 -2 -1 -5
right_child=3 2 -4 6 -6 -7 -8
leaf_value=-0.0081157950733492783 0.00097653797327470571 -0.0017711378401125224 0.0015766766503641208 0.003934929206978857 0.0046946187337226167 -0.0035704107839257988 0.0090461117832640672
leaf_weight=3797 11881 43401 43828 794 11756 17650 3502
leaf_count=3797 11881 43401 43828 794 11756 17650 3502
internal_value=0 -0.000934939 -8.90372e-05 0.0036374 0.00282581 -0.0043753 0.00810202
internal_weight=0 108676 87229 27933 23637 21447 4296
internal_count=136609 108676 87229 27933 23637 21447 4296
is_linear=0
shrinkage=0.05


Tree=97
num_leaves=8
num_cat=0
split_feature=3 1 2 2 2 1 1
split_gain=153.508 111.164 59.0535 49.8474 30.9135 14.5558 12.9084
threshold=35.390460335000007 1.0000000180025095e-35 1.0000000180025095e-35 1.0000000180025095e-35 1.0000000180025095e-35 1.0000000180025095e-35 1.0000000180025095e-35
decision_type=2 2 2 2 2 2 2
left_child=1 3 -3 -1 5 -2 -6
right_child=4 2 -4 -5 6 -7 -8
leaf_value=-0.0038689365941646627 8.2362433525413371e-05 -0.00085137792146908534 0.002407450403650575 -0.00087900500238975634 0.0036379926555622265 0.0034818250772984598 0.006833920661141045
leaf_weight=27908 6354 27703 27903 27852 6203 6242 6444
leaf_count=27908 6354 27703 27903 27852 6203 6242 6444
internal_value=0 -0.000797983 0.000783904 -0.00237549 0.00352044 0.00176705 0.00526661
internal_weight=0 111366 55606 55760 25243 12596 12647
internal_count=136609 111366 55606 55760 25243 12596 12647
is_linear=0
shrinkage=0.05


Tree=98
num_leaves=8
num_cat=0
split_feature=0 3 0 0 2 2 3
split_gain=175.94 118.591 88.5743 44.4221 31.0508 18.5805 7.48647
threshold=302.12493930000005 19.583831640000003 921.51607305000005 128.18880175000001 1.0000000180025095e-35 1.0000000180025095e-35 28.543447520000004
decision_type=2 2 2 2 2 2 2
left_child=3 5 -3 6 -5 -2 -1
right_child=1 2 -4 4 -6 -7 -8
leaf_value=-0.0099457781749025306 -0.0041191325104826971 0.0011899283878955482 0.0062758925527006534 -0.0042982999594683149 -0.00086614144960075145 -0.0010178894877939993 -0.0057540702562137256
leaf_weight=2351 9711 76992 9631 13057 13305 9609 1953
leaf_count=2351 9711 76992 9631 13057 13305 9609 1953
internal_value=0 0.000965396 0.00175543 -0.00333516 -0.00256613 -0.00257676 -0.00804462
internal_weight=0 105943 86623 30666 26362 19320 4304
internal_count=136609 105943 86623 30666 26362 19320 4304
is_linear=0
shrinkage=0.05


Tree=99
num_leaves=8
num_cat=0
split_feature=0 2 0 0 1 0 0
split_gain=162.783 86.4787 58.6433 46.4331 40.142 38.0741 11.2665
threshold=619.81322220000015 1.0000000180025095e-35 946.77769125000009 166.88399605000004 1.0000000180025095e-35 224.65359725000002 985.12023505000013
decision_type=2 2 2 2 2 2 2
left_child=1 5 4 -3 -2 -1 -4
right_child=2 3 6 -5 -6 -7 -8
leaf_value=-0.005917396790566771 -4.7913244223691719e-05 -0.0042521240974659775 0.004851565703633591 0.00083568691554105137 0.0028007183712261733 -0.002264222072620033 0.0090810946590783748
leaf_weight=9353 24680 5153 5907 34540 24788 30040 2148
leaf_count=9353 24680 5153 5907 34540 24788 30040 2148
internal_value=0 -0.001472 0.00202377 0.000175135 0.00137953 -0.00313165 0.00597993
internal_weight=0 79086 57523 39693 49468 39393 8055
internal_count=136609 79086 57523 39693 49468 39393 8055
is_linear=0
shrinkage=0.05


Tree=100
num_leaves=8
num_cat=0
split_feature=0 3 2 3 0 2 0
split_gain=147.257 87.2162 67.8949 58.6547 46.1764 17.6692 16.994
threshold=479.50196985000008 35.390460335000007 1.0000000180025095e-35 21.148554510000004 159.53918500000003 1.0000000180025095e-35 138.51456120000003
decision_type=2 2 2 2 2 2 2
left_child=3 2 -2 6 -5 -3 -1
right_child=1 5 -4 4 -6 -7 -8
leaf_value=-0.0098795721313671772 -0.0010026740754472813 0.0031431777021023394 0.0022418436958098844 -0.0047673391441825233 -0.00031204207311975049 0.006628884317379344 -0.0041485545092597937
leaf_weight=1442 32396 7223 32101 6912 36656 7323 12556
leaf_count=1442 32396 7223 32101 6912 36656 7323 12556
internal_value=0 0.00140093 0.00061217 -0.00192361 -0.00101892 0.00489818 -0.00473927
internal_weight=0 79043 64497 57566 43568 14546 13998
internal_count=136609 79043 64497 57566 43568 14546 13998
is_linear=0
shrinkage=0.05


Tree=101
num_leaves=8
num_cat=0
split_feature=3 1 1 3 2 2 3
split_gain=129.586 61.9789 58.7294 33.1785 30.2004 26.6337 26.317
threshold=28.735525035000006 1.0000000180025095e-35 1.0000000180025095e-35 37.665358525000009 1.0000000180025095e-35 1.0000000180025095e-35 18.766974625000003
decision_type=2 2 2 2 2 2 2
left_child=1 6 3 -2 -3 -4 -1
right_child=2 4 5 -5 -6 -7 -8
leaf_value=-0.0050033462503933724 -0.00071431281144552269 -0.0013857737797625148 0.0017527499173497934 0.0032954384827965453 0.0014645465648788112 0.0046783873016575444 -0.0020258340943026107
leaf_weight=10173 24148 18479 15466 6560 18694 15653 27436
leaf_count=10173 24148 18479 15466 6560 18694 15653 27436
internal_value=0 -0.00140023 0.00169362 0.00014231 4.76296e-05 0.00322441 -0.00283129
internal_weight=0 74782 61827 30708 37173 31119 37609
internal_count=136609 74782 61827 30708 37173 31119 37609
is_linear=0
shrinkage=0.05


Tree=102
num_leaves=8
num_cat=0
split_feature=3 1 2 2 1 3 2
split_gain=118.909 80.1789 39.5363 34.2444 29.6989 17.7455 11.3301
threshold=34.115346480000007 1.0000000180025095e-35 1.0000000180025095e-35 1.0000000180025095e-35 1.0000000180025095e-35 37.665358525000009 1.0000000180025095e-35
decision_type=2 2 2 2 2 2 2
left_child=1 3 -3 -1 5 -2 -6
right_child=4 2 -4 -5 6 -7 -8
leaf_value=-0.0034826525483268121 -0.00025067244437626459 -0.00081438257851407497 0.0019400265900031931 -0.00092281507372271631 0.0028255742300285326 0.003130679135943898 0.0054723490053928941
leaf_weight=26149 9497 25959 26153 26111 7986 6560 8194
leaf_count=26149 9497 25959 26153 26111 7986 6560 8194
internal_value=0 -0.000819835 0.000567954 -0.00220369 0.00265429 0.00113081 0.0041661
internal_weight=0 104372 52112 52260 32237 16057 16180
internal_count=136609 104372 52112 52260 32237 16057 16180
is_linear=0
shrinkage=0.05


Tree=103
num_leaves=8
num_cat=0
split_feature=0 3 0 0 3 0 3
split_gain=138.358 83.8909 67.5058 35.7296 30.4972 17.5248 5.04316
threshold=777.74056350000012 19.982525420000005 196.19708225000002 971.75860245000013 20.664387555000001 142.14981795000003 17.195643365000006
decision_type=2 2 2 2 2 2 2
left_child=1 5 -3 4 -2 -1 -5
right_child=3 2 -4 6 -6 -7 -8
leaf_value=-0.0094624611753760367 -0.00084331108176127496 -0.0037138530655599546 0.0003799150540703047 0.001491221159674922 0.0030432413379604187 -0.0034036130592159149 0.0075848695859584737
leaf_weight=1273 6506 11727 71255 372 22511 19041 3924
leaf_count=1273 6506 11727 71255 372 22511 19041 3924
internal_value=0 -0.000903646 -0.000198634 0.00280196 0.00217182 -0.00378352 0.00705744
internal_weight=0 103296 82982 33313 29017 20314 4296
internal_count=136609 103296 82982 33313 29017 20314 4296
is_linear=0
shrinkage=0.05


Tree=104
num_leaves=8
num_cat=0
split_feature=0 1 3 0 2 0 0
split_gain=126.348 69.4781 47.4069 39.65 37.4573 32.7041 8.86002
threshold=651.57730425000011 1.0000000180025095e-35 19.476327730000005 939.61135975000013 1.0000000180025095e-35 185.40083835000004 950.25352845000009
decision_type=2 2 2 2 2 2 2
left_child=1 5 6 -4 -3 -1 -2
right_child=2 4 3 -5 -6 -7 -8
leaf_value=-0.0059141138897673305 -0.0019328422924753002 -0.0012756453610101638 0.0019252565314015016 0.0059250761555203401 0.0017140053972556539 -0.0020468789072164606 0.0024471110951537088
leaf_weight=6460 8032 20725 35809 7492 21187 35556 1348
leaf_count=6460 8032 20725 35809 7492 21187 35556 1348
internal_value=0 -0.00120473 0.00191928 0.00261737 0.00023566 -0.00264153 -0.0013033
internal_weight=0 83928 52681 43301 41912 42016 9380
internal_count=136609 83928 52681 43301 41912 42016 9380
is_linear=0
shrinkage=0.05


Tree=105
num_leaves=8
num_cat=0
split_feature=0 1 0 0 2 1 4
split_gain=117.088 66.2167 40.2542 38.2583 37.0116 25.2925 3.34159
threshold=366.6430615000001 1.0000000180025095e-35 860.68914500000017 117.63041960000002 1.0000000180025095e-35 1.0000000180025095e-35 122.50000000000001
decision_type=2 2 2 2 2 2 2
left_child=3 4 -3 6 -2 -5 -1
right_child=1 2 -4 5 -6 -7 -8
leaf_value=-0.0091611809793103408 -0.0017481944492721846 0.0014939668898173702 0.0049930891356496053 -0.0031381061241590119 0.0010274386576171438 -0.00054653930202319754 -0.0052897321243528389
leaf_weight=1897 24119 37708 10510 18932 23922 18728 793
leaf_count=1897 24119 37708 10510 18932 23922 18728 793
internal_value=0 0.000947734 0.00225671 -0.00226091 -0.000366073 -0.00184937 -0.00802109
internal_weight=0 96259 48218 40350 48041 37660 2690
internal_count=136609 96259 48218 40350 48041 37660 2690
is_linear=0
shrinkage=0.05


Tree=106
num_leaves=8
num_cat=0
split_feature=0 3 0 2 0 3 3
split_gain=108.045 83.4065 41.6792 36.3757 23.6503 20.7759 4.43803
threshold=835.27132135000011 28.642769725000004 214.14734100000001 1.0000000180025095e-35 975.26257935000012 19.175012295000005 33.633913110000009
decision_type=2 2 2 2 2 2 2
left_child=1 2 -1 -3 5 -2 -6
right_child=4 3 -4 -5 6 -7 -8
leaf_value=-0.0049941759194570738 -0.0012305176937392013 -0.00050737640963509204 -0.0013556338332518147 0.0021618643442182892 0.0056383388666957149 0.0030321891785665793 0.0095851662702549634
leaf_weight=9288 3415 25483 51562 25571 2802 17531 957
leaf_count=9288 3415 25483 51562 25571 2802 17531 957
internal_value=0 -0.000660705 -0.00191105 0.000829552 0.00299266 0.00233719 0.0066443
internal_weight=0 111904 60850 51054 24705 20946 3759
internal_count=136609 111904 60850 51054 24705 20946 3759
is_linear=0
shrinkage=0.05


Tree=107
num_leaves=8
num_cat=0
split_feature=0 3 3 0 3 1 0
split_gain=100.752 76.9538 48.8469 29.1787 23.0519 14.8219 3.06447
threshold=302.12493930000005 35.390460335000007 19.271924925000004 117.63041960000002 33.828535445000007 1.0000000180025095e-35 106.86061760000001
decision_type=2 2 2 2 2 2 2
left_child=3 2 -2 6 -5 -3 -1
right_child=1 5 -4 4 -6 -7 -8
leaf_value=-0.0095659810336145637 -0.0022227882798423622 0.0021774029477573567 0.00070120164356922117 -0.0028825087035384022 0.00041555408456519491 0.0049347960594981434 -0.0061155492789517632
leaf_weight=1076 18053 9666 68392 20876 7100 9832 1614
leaf_count=1076 18053 9666 68392 20876 7100 9832 1614
internal_value=0 0.00073055 9.05521e-05 -0.00252384 -0.0020455 0.00356793 -0.00749724
internal_weight=0 105943 86445 30666 27976 19498 2690
internal_count=136609 105943 86445 30666 27976 19498 2690
is_linear=0
shrinkage=0.05


Tree=108
num_leaves=8
num_cat=0
split_feature=0 3 2 3 0 0 2
split_gain=95.4239 60.5429 40.3954 33.6691 27.0215 17.608 7.10471
threshold=711.22394750000012 22.923357540000001 1.0000000180025095e-35 35.676617135000008 968.02741060000005 142.14981795000003 1.0000000180025095e-35
decision_type=2 2 2 2 2 2 2
left_child=1 5 -3 4 -2 -1 -5
right_child=3 2 -4 6 -6 -7 -8
leaf_value=-0.0072501340140209355 0.00081356074072737837 -0.0013011790898650967 0.001214991003536693 0.0034467493417196177 0.0051748748756791259 -0.002449551379592439 0.006523015368961574
leaf_weight=2054 32029 31825 31979 3776 3994 27216 3736
leaf_count=2054 32029 31825 31979 3776 3994 27216 3736
internal_value=0 -0.000903787 -4.00578e-05 0.00193219 0.00129718 -0.00278655 0.00497702
internal_weight=0 93074 63804 43535 36023 29270 7512
internal_count=136609 93074 63804 43535 36023 29270 7512
is_linear=0
shrinkage=0.05


Tree=109
num_leaves=8
num_cat=0
split_feature=0 3 0 1 3 0 0
split_gain=87.7536 48.4058 39.7422 38.0219 37.5551 9.87332 7.88702
threshold=535.88436535000017 35.676617135000008 149.17071250000001 1.0000000180025095e-35 35.964853640000008 114.12388895000002 917.83551675000012
decision_type=2 2 2 2 2 2 2
left_child=2 3 5 -2 -4 -1 -3
right_child=1 6 4 -5 -6 -7 -8
leaf_value=-0.0075885636186702873 -0.00064572890669018792 0.0035043527316671336 -0.0014229083134936562 0.0019087542305574285 0.0020182085432324604 -0.0035808114723785778 0.0068343844341816722
leaf_weight=2152 29184 10005 49190 29083 9452 5380 2163
leaf_count=2152 29184 10005 49190 29083 9452 5380 2163
internal_value=0 0.00122831 -0.00130741 0.000629304 -0.000868252 -0.00472631 0.00409656
internal_weight=0 70435 66174 58267 58642 7532 12168
internal_count=136609 70435 66174 58267 58642 7532 12168
is_linear=0
shrinkage=0.05


Tree=110
num_leaves=8
num_cat=0
split_feature=0 3 1 2 1 0 0
split_gain=82.9663 64.1646 51.0254 20.3856 15.516 12.1276 11.5074
